{"learner":{"attributes":{"scikit_learn":"{\"_estimator_type\": \"classifier\"}"},"feature_names":["Home_xG","Away_xG","Home_shots","Away_shots","Home_corner","Away_corner","Home_PK_Goal","Away_PK_Goal","Home_PK_shots","Away_PK_shots","Home_ToP"],"feature_types":["float","float","int","int","int","int","int","int","int","int","float"],"gradient_booster":{"model":{"gbtree_model_param":{"num_parallel_tree":"1","num_trees":"100"},"iteration_indptr":[0,1,2,3,4,5,6,7,8,9,10,11,12,13,14,15,16,17,18,19,20,21,22,23,24,25,26,27,28,29,30,31,32,33,34,35,36,37,38,39,40,41,42,43,44,45,46,47,48,49,50,51,52,53,54,55,56,57,58,59,60,61,62,63,64,65,66,67,68,69,70,71,72,73,74,75,76,77,78,79,80,81,82,83,84,85,86,87,88,89,90,91,92,93,94,95,96,97,98,99,100],"tree_info":[0,0,0,0,0,0,0,0,0,0,0,0,0,0,0,0,0,0,0,0,0,0,0,0,0,0,0,0,0,0,0,0,0,0,0,0,0,0,0,0,0,0,0,0,0,0,0,0,0,0,0,0,0,0,0,0,0,0,0,0,0,0,0,0,0,0,0,0,0,0,0,0,0,0,0,0,0,0,0,0,0,0,0,0,0,0,0,0,0,0,0,0,0,0,0,0,0,0,0,0],"trees":[{"base_weights":[1.0324635E-3,7.894859E-1,-8.1220406E-1,1.347995E0,3.9370105E-1,-1.1510128E0,7.2184896E-1,1.4627535E0,9.1419235E-2,-6.067976E-1,6.932453E-1,-7.0883083E-1,-1.5157175E0,-1.474158E-1,1.1244767E0,1.2064257E-1,4.6596286E-1,-4.062339E-1,5.024938E-1,4.54126E-1,3.9675617E-1,-1.2243811E0,-5.3697456E-2,-5.311412E-1,-7.230976E-1,3.9675617E-1,2.8451819E-2,2.9710177E-1,-4.183241E-2,2.4827287E-1,3.828014E-1,-1.4723192E0,-6.7003334E-1,-5.732533E-1,8.354139E-1,-4.5009723E-1,-7.756317E-2,1.8823816E-1,-4.464282E-2,-1.0587315E-1,-4.9837145E-1,-3.9601946E-1,1.2064257E-1,-2.5877425E-1,7.9132035E-2,3.2106093E-1,7.9132035E-2,-2.483096E-1,2.3066385E-1],"categories":[],"categories_nodes":[],"categories_segments":[],"categories_sizes":[],"default_left":[0,0,0,0,0,0,0,0,0,0,0,0,0,0,0,0,0,0,0,0,0,0,0,0,0,0,0,0,0,0,0,0,0,0,0,0,0,0,0,0,0,0,0,0,0,0,0,0,0],"id":0,"left_children":[1,3,5,7,9,11,13,15,-1,17,19,21,23,-1,25,-1,-1,-1,27,29,-1,31,33,-1,35,-1,-1,-1,-1,37,-1,39,41,43,45,-1,47,-1,-1,-1,-1,-1,-1,-1,-1,-1,-1,-1,-1],"loss_changes":[6.13869E1,1.0214256E1,2.5326063E1,1.9184914E0,9.369905E0,5.2131157E0,5.0174603E0,1.0569458E0,0E0,6.8262596E0,2.9276276E0,6.520747E0,2.8566742E0,0E0,1.336009E0,0E0,0E0,0E0,1.3010194E0,2.8155406E0,0E0,5.071182E-1,4.9291368E0,0E0,3.2319481E0,0E0,0E0,0E0,0E0,2.5096006E0,0E0,8.250456E-1,4.150469E0,1.8437023E0,2.4921799E-1,0E0,3.620757E0,0E0,0E0,0E0,0E0,0E0,0E0,0E0,0E0,0E0,0E0,0E0,0E0],"parents":[2147483647,0,0,1,1,2,2,3,3,4,4,5,5,6,6,7,7,9,9,10,10,11,11,12,12,14,14,18,18,19,19,21,21,22,22,24,24,29,29,31,31,32,32,33,33,34,34,36,36],"right_children":[2,4,6,8,10,12,14,16,-1,18,20,22,24,-1,26,-1,-1,-1,28,30,-1,32,34,-1,36,-1,-1,-1,-1,38,-1,40,42,44,46,-1,48,-1,-1,-1,-1,-1,-1,-1,-1,-1,-1,-1,-1],"split_conditions":[9.8E-1,5.2E-1,2.18E0,7E0,1.15E0,1.3E0,5E0,2E0,9.1419235E-2,5E0,5.9E-1,5.4E-1,1.47E0,-1.474158E-1,1.76E0,1.2064257E-1,4.6596286E-1,-4.062339E-1,7.8E-1,2.51E0,3.9675617E-1,1.15E0,6E0,-5.311412E-1,4.8E-1,3.9675617E-1,2.8451819E-2,2.9710177E-1,-4.183241E-2,6E0,3.828014E-1,4E-1,7E0,1.23E0,1.07E0,-4.5009723E-1,1.2E1,1.8823816E-1,-4.464282E-2,-1.0587315E-1,-4.9837145E-1,-3.9601946E-1,1.2064257E-1,-2.5877425E-1,7.9132035E-2,3.2106093E-1,7.9132035E-2,-2.483096E-1,2.3066385E-1],"split_indices":[1,1,0,5,0,1,4,5,0,4,10,10,0,0,1,0,0,0,1,0,0,1,5,0,10,0,0,0,0,4,0,10,4,1,1,0,3,0,0,0,0,0,0,0,0,0,0,0,0],"split_type":[0,0,0,0,0,0,0,0,0,0,0,0,0,0,0,0,0,0,0,0,0,0,0,0,0,0,0,0,0,0,0,0,0,0,0,0,0,0,0,0,0,0,0,0,0,0,0,0,0],"sum_hessian":[9.373762E1,4.760884E1,4.6128773E1,1.8747522E1,2.8861319E1,3.7988403E1,8.140372E0,1.6527422E1,2.2201014E0,6.413626E0,2.2447693E1,1.8500845E1,1.9487556E1,1.9734235E0,6.1669483E0,1.7267456E0,1.4800676E1,3.700169E0,2.7134573E0,1.7514133E1,4.9335585E0,9.867117E0,8.633728E0,1.3813965E1,5.6735926E0,4.9335585E0,1.2333896E0,1.2333896E0,1.4800676E0,1.5047354E1,2.4667792E0,5.6735926E0,4.193525E0,5.6735926E0,2.9601352E0,1.9734235E0,3.700169E0,7.400338E0,7.647016E0,1.2333896E0,4.4402027E0,2.4667792E0,1.7267456E0,4.193525E0,1.4800676E0,1.4800676E0,1.4800676E0,1.9734235E0,1.7267456E0],"tree_param":{"num_deleted":"0","num_feature":"11","num_nodes":"49","size_leaf_vector":"1"}},{"base_weights":[8.470601E-3,6.216698E-1,-6.0162044E-1,1.077348E0,3.1475815E-1,-8.0526805E-1,3.0104148E-1,-1.1394767E-2,1.1564275E0,-1.8909301E-1,6.8703187E-1,-6.348465E-1,-4.733716E-1,4.1928956E-1,6.453463E-1,-6.469314E-1,2.66254E-1,-2.7019143E-2,8.3556294E-1,-8.5980386E-1,1.7539699E-2,-1.3038E-1,3.0680132E-1,-1.0265075E0,4.072295E-2,-1.97956E-1,7.9465455E-1,2.7749884E-1,-2.4026623E-1,1.0582284E0,3.2915723E-1,-9.215657E-1,7.21219E-2,-6.352501E-1,6.1860365E-1,1.1570409E-1,-1.7714554E-1,-8.904715E-2,-3.8120446E-1,2.9961857E-1,2.4684908E-2,3.5064635E-1,1.0619521E-1,-1.2373644E-1,2.223355E-1,-3.2571682E-1,-1.6428511E-1,-5.4255642E-2,-3.6092052E-1,3.1777793E-1,-2.8961115E-2],"categories":[],"categories_nodes":[],"categories_segments":[],"categories_sizes":[],"default_left":[0,0,0,0,0,0,0,0,0,0,0,0,0,0,0,0,0,0,0,0,0,0,0,0,0,0,0,0,0,0,0,0,0,0,0,0,0,0,0,0,0,0,0,0,0,0,0,0,0,0,0],"id":1,"left_children":[1,3,5,7,9,11,-1,-1,13,15,17,19,-1,-1,21,23,25,27,29,31,33,35,-1,37,-1,-1,39,-1,-1,41,43,45,-1,47,49,-1,-1,-1,-1,-1,-1,-1,-1,-1,-1,-1,-1,-1,-1,-1,-1],"loss_changes":[3.470171E1,6.129755E0,1.6009054E1,1.649416E0,5.579176E0,4.5052834E0,0E0,0E0,1.1973572E0,2.909228E0,1.8174343E0,5.289358E0,0E0,0E0,2.2753205E0,2.1707857E0,4.092061E0,3.6013734E0,1.23487E0,2.0387993E0,4.3931117E0,1.0069449E0,0E0,4.6406937E-1,0E0,0E0,6.58618E-1,0E0,0E0,3.1065178E-1,2.0592072E0,9.725647E-1,0E0,1.170677E0,1.9345434E0,0E0,0E0,0E0,0E0,0E0,0E0,0E0,0E0,0E0,0E0,0E0,0E0,0E0,0E0,0E0,0E0],"parents":[2147483647,0,0,1,1,2,2,3,3,4,4,5,5,8,8,9,9,10,10,11,11,14,14,15,15,16,16,17,17,18,18,19,19,20,20,21,21,23,23,26,26,29,29,30,30,31,31,33,33,34,34],"right_children":[2,4,6,8,10,12,-1,-1,14,16,18,20,-1,-1,22,24,26,28,30,32,34,36,-1,38,-1,-1,40,-1,-1,42,44,46,-1,48,50,-1,-1,-1,-1,-1,-1,-1,-1,-1,-1,-1,-1,-1,-1,-1,-1],"split_conditions":[9.8E-1,5.2E-1,2.4E0,4.6E-1,1.51E0,1.85E0,3.0104148E-1,-1.1394767E-2,7E0,5E0,4.4E-1,1.7E0,-4.733716E-1,4.1928956E-1,5.1E-1,1.15E0,1E1,1.7E1,8.2E-1,8E0,5.3E-1,6E0,3.0680132E-1,9E0,4.072295E-2,-1.97956E-1,8E0,2.7749884E-1,-2.4026623E-1,1.4E1,1.81E0,5.4E-1,7.21219E-2,5.1E-1,2.05E0,1.1570409E-1,-1.7714554E-1,-8.904715E-2,-3.8120446E-1,2.9961857E-1,2.4684908E-2,3.5064635E-1,1.0619521E-1,-1.2373644E-1,2.223355E-1,-3.2571682E-1,-1.6428511E-1,-5.4255642E-2,-3.6092052E-1,3.1777793E-1,-2.8961115E-2],"split_indices":[1,1,0,0,0,1,0,0,4,4,10,0,0,0,10,0,3,2,1,5,10,3,0,2,0,0,4,0,0,3,0,10,0,10,0,0,0,0,0,0,0,0,0,0,0,0,0,0,0,0,0],"split_type":[0,0,0,0,0,0,0,0,0,0,0,0,0,0,0,0,0,0,0,0,0,0,0,0,0,0,0,0,0,0,0,0,0,0,0,0,0,0,0,0,0,0,0,0,0,0,0,0,0,0,0],"sum_hessian":[9.075896E1,4.5254707E1,4.5504246E1,1.7202908E1,2.8051802E1,4.0823082E1,4.6811643E0,1.1733783E0,1.602953E1,1.2128555E1,1.5923245E1,3.493835E1,5.884732E0,9.711528E0,6.318002E0,5.8379345E0,6.2906203E0,2.8827503E0,1.3040495E1,2.5743484E1,9.194866E0,2.2816708E0,4.036331E0,3.721547E0,2.1163878E0,2.1949105E0,4.09571E0,1.2050297E0,1.6777204E0,8.300916E0,4.7395797E0,2.4528893E1,1.2145919E0,4.380508E0,4.814358E0,1.1516831E0,1.1299878E0,1.4886187E0,2.232928E0,2.8712127E0,1.2244973E0,6.604139E0,1.696777E0,1.6921587E0,3.0474207E0,1.5723256E1,8.805636E0,3.1656735E0,1.2148345E0,2.6811152E0,2.133243E0],"tree_param":{"num_deleted":"0","num_feature":"11","num_nodes":"51","size_leaf_vector":"1"}},{"base_weights":[1.3218377E-2,5.007041E-1,-4.588973E-1,5.683108E-1,-2.6435956E-1,-6.15685E-1,8.224152E-1,7.8586805E-1,1.892004E-1,-2.7802715E-1,-9.18323E-1,3.6837777E-1,3.0386257E-1,-1.2815857E-1,8.975298E-1,-7.5923276E-1,4.23744E-1,-9.407894E-1,1.5904618E-2,-9.6490586E-1,-2.070066E-2,2.2464406E-1,-5.5165242E-2,-1.1023135E-1,1.0320834E0,-4.7598753E-2,-3.2392204E-1,1.6701633E-1,3.2205868E-1,-3.966117E-1,-2.3217332E-1,3.5286766E-1,-1.9477676E-1,-1.0327376E0,-5.8795672E-2,1.777714E-1,-2.673626E-1,3.249732E-1,9.5991895E-2,-1.3093492E-1,1.4420061E-1,2.0759843E-1,-3.1469333E-1,-1.0977668E-1,2.6530203E-1,-3.2117456E-1,-8.223198E-2],"categories":[],"categories_nodes":[],"categories_segments":[],"categories_sizes":[],"default_left":[0,0,0,0,0,0,0,0,0,0,0,0,0,0,0,0,0,0,0,0,0,0,0,0,0,0,0,0,0,0,0,0,0,0,0,0,0,0,0,0,0,0,0,0,0,0,0],"id":2,"left_children":[1,3,5,7,-1,9,11,13,15,17,19,21,-1,-1,23,25,27,29,31,33,-1,-1,-1,35,37,-1,-1,39,-1,-1,41,-1,43,45,-1,-1,-1,-1,-1,-1,-1,-1,-1,-1,-1,-1,-1],"loss_changes":[2.018095E1,4.530056E0,9.458177E0,3.2926579E0,0E0,3.8601742E0,8.4011555E-2,3.931425E0,3.9989405E0,4.0026064E0,7.5650597E-1,7.960959E-1,0E0,0E0,3.4099197E0,5.285027E-1,2.138631E0,1.3965979E0,3.936074E0,8.222408E-1,0E0,0E0,0E0,2.5955887E0,4.3818855E-1,0E0,0E0,2.319128E0,0E0,0E0,3.306649E0,0E0,2.8522696E0,2.1811104E-1,0E0,0E0,0E0,0E0,0E0,0E0,0E0,0E0,0E0,0E0,0E0,0E0,0E0],"parents":[2147483647,0,0,1,1,2,2,3,3,5,5,6,6,7,7,8,8,9,9,10,10,11,11,14,14,15,15,16,16,17,17,18,18,19,19,23,23,24,24,27,27,30,30,32,32,33,33],"right_children":[2,4,6,8,-1,10,12,14,16,18,20,22,-1,-1,24,26,28,30,32,34,-1,-1,-1,36,38,-1,-1,40,-1,-1,42,-1,44,46,-1,-1,-1,-1,-1,-1,-1,-1,-1,-1,-1,-1,-1],"split_conditions":[9.8E-1,1E0,2.4E0,7.2E-1,-2.6435956E-1,1.3E0,2E1,4.9E-1,4.4E-1,1.1E1,9E0,2.6E0,3.0386257E-1,-1.2815857E-1,2E0,1.6E1,2.38E0,1.17E0,1.2E1,6.3E-1,-2.070066E-2,2.2464406E-1,-5.5165242E-2,1.93E0,1.6E1,-4.7598753E-2,-3.2392204E-1,9E0,3.2205868E-1,-3.966117E-1,3E0,3.5286766E-1,2.17E0,2.31E0,-5.8795672E-2,1.777714E-1,-2.673626E-1,3.249732E-1,9.5991895E-2,-1.3093492E-1,1.4420061E-1,2.0759843E-1,-3.1469333E-1,-1.0977668E-1,2.6530203E-1,-3.2117456E-1,-8.223198E-2],"split_indices":[1,7,0,1,0,1,2,0,10,2,5,0,0,0,5,2,0,1,2,10,0,0,0,0,3,0,0,3,0,0,5,0,0,0,0,0,0,0,0,0,0,0,0,0,0,0,0],"split_type":[0,0,0,0,0,0,0,0,0,0,0,0,0,0,0,0,0,0,0,0,0,0,0,0,0,0,0,0,0,0,0,0,0,0,0,0,0,0,0,0,0,0,0,0,0,0,0],"sum_hessian":[8.568785E1,4.2127895E1,4.3559956E1,4.0724293E1,1.4036027E0,3.927372E1,4.2862363E0,2.5193665E1,1.5530628E1,1.9469728E1,1.9803991E1,2.133747E0,2.152489E0,1.885399E0,2.3308266E1,2.635656E0,1.2894973E1,5.3056817E0,1.4164045E1,1.8645258E1,1.1587324E0,1.0526837E0,1.0810634E0,2.7667809E0,2.0541485E1,1.4373564E0,1.1982998E0,1.0144106E1,2.7508664E0,2.886841E0,2.4188406E0,1.4723216E0,1.2691724E1,1.6818483E1,1.8267758E0,1.5832529E0,1.1835281E0,1.8678389E1,1.8630964E0,3.335366E0,6.80874E0,1.2065264E0,1.2123142E0,1.1524819E1,1.1669048E0,1.5627697E1,1.1907855E0],"tree_param":{"num_deleted":"0","num_feature":"11","num_nodes":"47","size_leaf_vector":"1"}},{"base_weights":[1.2062748E-2,3.8852683E-1,-3.443841E-1,7.8581953E-1,1.5497296E-1,-4.7325915E-1,7.196215E-1,9.186168E-1,-2.262142E-2,-2.3802534E-1,4.376648E-1,-3.3398557E-1,-3.5490227E-1,9.171916E-2,2.760303E-1,3.1155938E-1,1.38533935E-2,-7.513092E-1,1.5750328E-1,2.468446E-1,2.9364455E-1,-8.765537E-1,-1.3597752E-1,-3.2298434E-1,-3.367612E-2,-1.353921E-1,3.7512177E-1,7.1853864E-1,-9.164777E-2,-3.8068973E-2,-2.981981E-1,5.8602583E-1,-3.1200865E-1,-1.1461613E-1,2.0205808E-1,3.132163E-1,3.1882938E-2,-1.0697998E-1,2.3018463E-1,3.0349296E-1,-1.08486295E-1,-2.2356012E-1,3.340601E-2],"categories":[],"categories_nodes":[],"categories_segments":[],"categories_sizes":[],"default_left":[0,0,0,0,0,0,0,0,0,0,0,0,0,0,0,0,0,0,0,0,0,0,0,0,0,0,0,0,0,0,0,0,0,0,0,0,0,0,0,0,0,0,0],"id":3,"left_children":[1,3,5,7,9,11,13,15,-1,17,19,21,-1,-1,-1,-1,-1,23,25,27,-1,29,31,-1,-1,-1,33,35,37,-1,-1,39,41,-1,-1,-1,-1,-1,-1,-1,-1,-1,-1],"loss_changes":[1.1016878E1,3.5817642E0,6.1256566E0,1.7311792E0,3.0351782E0,3.384307E0,1.2981963E-1,1.277112E0,0E0,2.4906888E0,1.3792806E0,3.4642937E0,0E0,0E0,0E0,0E0,0E0,9.7242355E-1,1.1532124E0,2.1322381E0,0E0,6.4286375E-1,3.439135E0,0E0,0E0,0E0,1.6168296E0,9.892304E-1,2.1902025E0,0E0,0E0,2.5315776E0,3.9804037E0,0E0,0E0,0E0,0E0,0E0,0E0,0E0,0E0,0E0,0E0],"parents":[2147483647,0,0,1,1,2,2,3,3,4,4,5,5,6,6,7,7,9,9,10,10,11,11,17,17,18,18,19,19,21,21,22,22,26,26,27,27,28,28,31,31,32,32],"right_children":[2,4,6,8,10,12,14,16,-1,18,20,22,-1,-1,-1,-1,-1,24,26,28,-1,30,32,-1,-1,-1,34,36,38,-1,-1,40,42,-1,-1,-1,-1,-1,-1,-1,-1,-1,-1],"split_conditions":[9.8E-1,5.2E-1,2.4E0,7E0,1.48E0,1.85E0,5E0,2.61E0,-2.262142E-2,1.2E1,5.9E-1,1.1E1,-3.5490227E-1,9.171916E-2,2.760303E-1,3.1155938E-1,1.38533935E-2,8E-1,3E0,1.6E1,2.9364455E-1,2E0,1.3E1,-3.2298434E-1,-3.367612E-2,-1.353921E-1,4.4E-1,1.2E1,2.51E0,-3.8068973E-2,-2.981981E-1,5.7E-1,1.48E0,-1.1461613E-1,2.0205808E-1,3.132163E-1,3.1882938E-2,-1.0697998E-1,2.3018463E-1,3.0349296E-1,-1.08486295E-1,-2.2356012E-1,3.340601E-2],"split_indices":[1,1,0,5,0,1,5,0,0,2,10,2,0,0,0,0,0,1,5,2,0,5,2,0,0,0,10,3,0,0,0,10,0,0,0,0,0,0,0,0,0,0,0],"split_type":[0,0,0,0,0,0,0,0,0,0,0,0,0,0,0,0,0,0,0,0,0,0,0,0,0,0,0,0,0,0,0,0,0,0,0,0,0,0,0,0,0,0,0],"sum_hessian":[8.010233E1,3.891352E1,4.1188812E1,1.3531241E1,2.5382278E1,3.7234127E1,3.954682E0,1.1665785E1,1.8654567E0,1.0685415E1,1.4696862E1,3.2355576E1,4.878551E0,2.1144288E0,1.8402534E0,1.0088738E1,1.5770472E0,4.2589717E0,6.426443E0,1.194202E1,2.7548423E0,7.7346787E0,2.46209E1,2.3685749E0,1.890397E0,1.4094675E0,5.016976E0,4.520239E0,7.421781E0,1.3293742E0,6.4053044E0,4.3695984E0,2.02513E1,1.3390191E0,3.6779568E0,2.4907598E0,2.029479E0,6.119076E0,1.3027054E0,2.9687223E0,1.4008763E0,9.633713E0,1.0617587E1],"tree_param":{"num_deleted":"0","num_feature":"11","num_nodes":"43","size_leaf_vector":"1"}},{"base_weights":[1.5124239E-2,4.8457763E-1,-1.8292953E-1,-1.5627947E-1,5.8005095E-1,-3.5545805E-1,5.832775E-1,1.0259775E-1,8.041523E-1,-3.955872E-1,2.0234673E-1,-2.1838477E-1,8.906941E-1,2.2541192E-1,-2.830158E-1,9.376001E-1,2.1371384E-1,-4.738291E-1,2.0995958E-1,2.937942E-1,2.9956093E-2,3.6474743E-1,-8.0648977E-1,5.90072E-2,3.211921E-1,1.442573E-1,-6.939464E-2,-3.3795404E-1,-8.9688426E-1,-1.42434E-1,6.0970664E-1,-4.4664066E-2,2.1431246E-1,-4.7522627E-2,-3.1557468E-1,-1.2437657E-2,-1.6285379E-1,-3.182776E-1,2.7698115E-3,2.994363E-1,-5.8686163E-2],"categories":[],"categories_nodes":[],"categories_segments":[],"categories_sizes":[],"default_left":[0,0,0,0,0,0,0,0,0,0,0,0,0,0,0,0,0,0,0,0,0,0,0,0,0,0,0,0,0,0,0,0,0,0,0,0,0,0,0,0,0],"id":4,"left_children":[1,3,5,-1,7,9,11,13,15,17,-1,-1,19,-1,21,23,25,27,29,-1,-1,31,33,-1,-1,-1,-1,35,37,-1,39,-1,-1,-1,-1,-1,-1,-1,-1,-1,-1],"loss_changes":[7.149714E0,2.491644E0,7.363845E0,0E0,2.1968298E0,2.118801E0,4.8116865E0,2.201816E0,9.3041897E-1,2.1727276E0,0E0,0E0,5.20113E-1,0E0,2.231486E0,9.1416836E-1,5.7975405E-1,1.9420862E0,1.8496907E0,0E0,0E0,6.8856835E-1,3.8548732E-1,0E0,0E0,0E0,0E0,1.8709433E0,1.3312721E0,0E0,1.4579455E0,0E0,0E0,0E0,0E0,0E0,0E0,0E0,0E0,0E0,0E0],"parents":[2147483647,0,0,1,1,2,2,4,4,5,5,6,6,7,7,8,8,9,9,12,12,14,14,15,15,16,16,17,17,18,18,21,21,22,22,27,27,28,28,30,30],"right_children":[2,4,6,-1,8,10,12,14,16,18,-1,-1,20,-1,22,24,26,28,30,-1,-1,32,34,-1,-1,-1,-1,36,38,-1,40,-1,-1,-1,-1,-1,-1,-1,-1,-1,-1],"split_conditions":[7.3E-1,4.4E-1,2.21E0,-1.5627947E-1,4.8E-1,2E0,4.4E-1,1.44E0,2.41E0,9E0,2.0234673E-1,-2.1838477E-1,1.9E0,2.2541192E-1,6E0,8E0,4.2E-1,7E0,1.3E1,2.937942E-1,2.9956093E-2,1.68E0,6E0,5.90072E-2,3.211921E-1,1.442573E-1,-6.939464E-2,1.09E0,1E0,-1.42434E-1,2E1,-4.4664066E-2,2.1431246E-1,-4.7522627E-2,-3.1557468E-1,-1.2437657E-2,-1.6285379E-1,-3.182776E-1,2.7698115E-3,2.994363E-1,-5.8686163E-2],"split_indices":[1,0,0,0,10,8,10,0,0,4,0,0,1,0,4,2,1,4,2,0,0,0,3,0,0,0,0,1,8,0,2,0,0,0,0,0,0,0,0,0,0],"split_type":[0,0,0,0,0,0,0,0,0,0,0,0,0,0,0,0,0,0,0,0,0,0,0,0,0,0,0,0,0,0,0,0,0,0,0,0,0,0,0,0,0],"sum_hessian":[7.494426E1,2.1807213E1,5.313705E1,1.5046101E0,2.0302603E1,4.3808643E1,9.328407E0,6.951048E0,1.3351554E1,4.2758583E1,1.0500592E0,1.5118675E0,7.8165393E0,2.2377067E0,4.713341E0,1.0410627E1,2.9409268E0,3.80586E1,4.699982E0,6.81459E0,1.0019491E0,2.2421062E0,2.4712353E0,1.9620838E0,8.448544E0,1.787445E0,1.1534818E0,3.0168161E1,7.890439E0,1.663249E0,3.0367332E0,1.1406236E0,1.1014827E0,1.1307573E0,1.340478E0,1.2819563E1,1.7348598E1,6.5362806E0,1.3541588E0,1.8871506E0,1.1495826E0],"tree_param":{"num_deleted":"0","num_feature":"11","num_nodes":"41","size_leaf_vector":"1"}},{"base_weights":[1.839375E-2,6.0634625E-1,-9.6839815E-2,7.402583E-1,-2.7328635E-2,-3.7803608E-1,1.7510165E-1,2.61721E-1,-1.4752689E-3,-2.0802772E-1,-6.844779E-1,-3.241029E-1,3.5175285E-1,-6.024427E-1,4.1936427E-2,5.5667665E-2,-8.266698E-1,-5.380816E-1,1.9190432E-1,-2.5324655E-1,6.448712E-1,-8.5696614E-1,6.348953E-2,-5.0628847E-1,3.0798638E-1,-6.84559E-2,-9.5940876E-1,1.237505E-1,-7.890376E-1,1.9576024E-1,-4.9195066E-1,-1.4150518E-1,8.293055E-1,2.6982373E-2,-3.2827914E-1,1.3649628E-1,-9.7518034E-2,-2.2782595E-1,1.6453762E-2,1.7196657E-1,-8.264941E-2,-1.08534575E-1,-3.1652075E-1,-4.890678E-3,-2.9484734E-1,-2.6367402E-1,4.4643417E-2,4.1533396E-2,2.9947805E-1],"categories":[],"categories_nodes":[],"categories_segments":[],"categories_sizes":[],"default_left":[0,0,0,0,0,0,0,0,0,0,0,0,0,0,0,0,0,0,0,0,0,0,0,0,0,0,0,0,0,0,0,0,0,0,0,0,0,0,0,0,0,0,0,0,0,0,0,0,0],"id":5,"left_children":[1,3,5,7,-1,9,11,-1,-1,13,15,17,19,21,23,-1,25,27,-1,29,31,33,35,37,39,-1,41,-1,43,-1,45,-1,47,-1,-1,-1,-1,-1,-1,-1,-1,-1,-1,-1,-1,-1,-1,-1,-1],"loss_changes":[4.9024405E0,1.1744895E0,4.703172E0,9.942856E-1,0E0,1.4272404E0,2.8927236E0,0E0,0E0,2.077374E0,1.4293594E0,2.1500213E0,4.375708E0,1.4339983E0,2.150539E0,0E0,4.9990225E-1,2.1644075E0,0E0,2.1524544E0,3.7443862E0,1.4371018E0,6.318904E-1,7.300354E-1,1.6790469E0,0E0,2.3842812E-2,0E0,9.486265E-1,0E0,1.934383E0,0E0,1.5353136E0,0E0,0E0,0E0,0E0,0E0,0E0,0E0,0E0,0E0,0E0,0E0,0E0,0E0,0E0,0E0,0E0],"parents":[2147483647,0,0,1,1,2,2,3,3,5,5,6,6,9,9,10,10,11,11,12,12,13,13,14,14,16,16,17,17,19,19,20,20,21,21,22,22,23,23,24,24,26,26,28,28,30,30,32,32],"right_children":[2,4,6,8,-1,10,12,-1,-1,14,16,18,20,22,24,-1,26,28,-1,30,32,34,36,38,40,-1,42,-1,44,-1,46,-1,48,-1,-1,-1,-1,-1,-1,-1,-1,-1,-1,-1,-1,-1,-1,-1,-1],"split_conditions":[5.2E-1,7E0,1.48E0,2.61E0,-2.7328635E-2,1.3E0,4.6E-1,2.61721E-1,-1.4752689E-3,4.9E-1,4.2E-1,2.62E0,5E0,1.3E1,8.3E-1,5.5667665E-2,7.8E-1,1.56E0,1.9190432E-1,7.7E-1,1.1E1,8E0,9.2E-1,5.8E-1,6E-1,-6.84559E-2,1.1E1,1.237505E-1,4E-1,1.9576024E-1,1.17E0,-1.4150518E-1,9E0,2.6982373E-2,-3.2827914E-1,1.3649628E-1,-9.7518034E-2,-2.2782595E-1,1.6453762E-2,1.7196657E-1,-8.264941E-2,-1.08534575E-1,-3.1652075E-1,-4.890678E-3,-2.9484734E-1,-2.6367402E-1,4.4643417E-2,4.1533396E-2,2.9947805E-1],"split_indices":[1,5,0,0,0,1,10,0,0,10,10,0,4,3,0,0,0,0,0,1,2,3,1,10,10,0,2,0,10,0,1,0,3,0,0,0,0,0,0,0,0,0,0,0,0,0,0,0,0],"split_type":[0,0,0,0,0,0,0,0,0,0,0,0,0,0,0,0,0,0,0,0,0,0,0,0,0,0,0,0,0,0,0,0,0,0,0,0,0,0,0,0,0,0,0,0,0,0,0,0,0],"sum_hessian":[7.049209E1,1.08533745E1,5.9638714E1,9.053643E0,1.7997316E0,2.912863E1,3.0510082E1,7.5449343E0,1.5087085E0,1.9814665E1,9.313966E0,7.756376E0,2.2753706E1,7.1393957E0,1.2675268E1,1.2655276E0,8.048438E0,6.708629E0,1.0477467E0,7.4705124E0,1.5283194E1,4.9576745E0,2.1817214E0,3.8463871E0,8.828881E0,1.9546261E0,6.093812E0,1.2667292E0,5.4419003E0,1.1965315E0,6.2739806E0,1.945824E0,1.333737E1,1.1178813E0,3.839793E0,1.0015658E0,1.1801558E0,2.4071434E0,1.4392438E0,6.081838E0,2.7470431E0,1.5006458E0,4.5931664E0,1.3084621E0,4.133438E0,3.6799517E0,2.594029E0,2.978325E0,1.0359045E1],"tree_param":{"num_deleted":"0","num_feature":"11","num_nodes":"49","size_leaf_vector":"1"}},{"base_weights":[9.562337E-3,-5.4040965E-2,7.922234E-1,1.650229E-2,-2.640074E-1,2.696344E-1,7.781458E-2,4.8798195E-1,-6.896528E-2,5.633391E-2,2.7940777E-1,-3.848162E-1,6.676407E-2,1.9914477E-1,-2.5548723E-1,-6.178765E-1,5.361234E-1,-3.9619226E-2,7.0060664E-1,-2.183284E-1,1.7875661E-1,6.1022207E-2,-2.1431006E-1,2.165711E-1,1.2442222E-2,2.2854301E-1,-3.2549668E-2,2.76167E-1,3.8354825E-2],"categories":[],"categories_nodes":[],"categories_segments":[],"categories_sizes":[],"default_left":[0,0,0,0,0,0,0,0,0,0,0,0,0,0,0,0,0,0,0,0,0,0,0,0,0,0,0,0,0],"id":6,"left_children":[1,3,5,7,-1,-1,-1,9,11,13,-1,15,17,-1,19,21,23,25,27,-1,-1,-1,-1,-1,-1,-1,-1,-1,-1],"loss_changes":[3.3874457E0,3.689746E0,5.7214737E-2,2.4148977E0,0E0,0E0,0E0,1.7067523E0,2.2078443E0,1.253502E0,0E0,3.6467206E0,2.4858816E0,0E0,2.2442546E0,1.1590166E0,3.0594742E-1,1.8580498E0,5.490632E-1,0E0,0E0,0E0,0E0,0E0,0E0,0E0,0E0,0E0,0E0],"parents":[2147483647,0,0,1,1,2,2,3,3,7,7,8,8,9,9,11,11,12,12,14,14,15,15,16,16,17,17,18,18],"right_children":[2,4,6,8,-1,-1,-1,10,12,14,-1,16,18,-1,20,22,24,26,28,-1,-1,-1,-1,-1,-1,-1,-1,-1,-1],"split_conditions":[2.67E0,1.85E0,5.5E-1,5.2E-1,-2.640074E-1,2.696344E-1,7.781458E-2,8E0,1.13E0,4E0,2.7940777E-1,1.7E1,6.2E-1,1.9914477E-1,5.4E-1,3.8E-1,5.4E-1,1.17E0,6.7E-1,-2.183284E-1,1.7875661E-1,6.1022207E-2,-2.1431006E-1,2.165711E-1,1.2442222E-2,2.2854301E-1,-3.2549668E-2,2.76167E-1,3.8354825E-2],"split_indices":[0,1,10,1,0,0,0,3,0,3,0,3,10,0,10,10,10,0,10,0,0,0,0,0,0,0,0,0,0],"split_type":[0,0,0,0,0,0,0,0,0,0,0,0,0,0,0,0,0,0,0,0,0,0,0,0,0,0,0,0,0],"sum_hessian":[6.618853E1,6.2074936E1,4.1135955E0,5.8093475E1,3.981461E0,2.8557339E0,1.2578614E0,8.192147E0,4.990133E1,4.722061E0,3.4700863E0,1.4447018E1,3.545431E1,1.2187971E0,3.5032642E0,1.1791936E1,2.6550813E0,3.116167E1,4.2926397E0,2.3466456E0,1.1566185E0,1.1232508E0,1.0668685E1,1.5961678E0,1.0589134E0,1.670068E0,2.9491604E1,2.6628258E0,1.6298141E0],"tree_param":{"num_deleted":"0","num_feature":"11","num_nodes":"29","size_leaf_vector":"1"}},{"base_weights":[2.5400858E-2,-2.6335606E-2,7.113593E-1,3.1053158E-2,-7.564771E-1,4.897643E-2,2.4837227E-1,6.946992E-2,-2.364921E-1,-2.6661897E-1,-4.7102015E-2,-2.0762525E-1,2.0237806E-1,-3.0519566E-1,1.6685551E-1,-2.0526893E-1,2.6455784E-1,-2.3656632E-1,-3.5926387E-2,1.9889596E-1,3.842007E-2],"categories":[],"categories_nodes":[],"categories_segments":[],"categories_sizes":[],"default_left":[0,0,0,0,0,0,0,0,0,0,0,0,0,0,0,0,0,0,0,0,0],"id":7,"left_children":[1,3,5,7,9,-1,-1,11,-1,-1,-1,13,15,17,-1,-1,19,-1,-1,-1,-1],"loss_changes":[2.3137395E0,2.5835695E0,1.5684032E-1,1.8680137E0,2.1657038E-1,0E0,0E0,2.102348E0,0E0,0E0,0E0,1.5580556E0,2.293323E0,1.4440801E0,0E0,0E0,1.901432E0,0E0,0E0,0E0,0E0],"parents":[2147483647,0,0,1,1,2,2,3,3,4,4,7,7,11,11,12,12,13,13,16,16],"right_children":[2,4,6,8,10,-1,-1,12,-1,-1,-1,14,16,18,-1,-1,20,-1,-1,-1,-1],"split_conditions":[2.67E0,1.85E0,3.4E-1,1E0,2.1E1,4.897643E-2,2.4837227E-1,4.8E-1,-2.364921E-1,-2.6661897E-1,-4.7102015E-2,1E0,4.1E-1,1.3E1,1.6685551E-1,-2.0526893E-1,7.3E-1,-2.3656632E-1,-3.5926387E-2,1.9889596E-1,3.842007E-2],"split_indices":[0,1,1,7,2,0,0,10,0,0,0,9,0,2,0,0,1,0,0,0,0],"split_type":[0,0,0,0,0,0,0,0,0,0,0,0,0,0,0,0,0,0,0,0,0],"sum_hessian":[6.366796E1,6.0096928E1,3.5710323E0,5.660525E1,3.4916754E0,1.0471641E0,2.5238683E0,5.494433E1,1.6609219E0,2.4652722E0,1.0264032E0,1.7628716E1,3.7315613E1,1.6164291E1,1.4644237E0,1.7898915E0,3.5525723E1,3.5801592E0,1.2584133E1,8.080549E0,2.7445173E1],"tree_param":{"num_deleted":"0","num_feature":"11","num_nodes":"21","size_leaf_vector":"1"}},{"base_weights":[1.3902179E-2,4.240229E-1,-5.6109462E-2,6.8629974E-1,4.5368653E-2,-1.2201523E-1,5.708817E-1,-2.2161864E-2,2.6375568E-1,2.2504337E-1,-4.3073744E-1,-7.199304E-2,-2.221365E-1,-2.47535E-3,7.080812E-1,-2.2757155E-1,4.702294E-2,-5.4185313E-1,-1.9410048E-2,6.798455E-2,2.4226986E-1,-2.5307462E-1,-2.4890693E-2,2.6610935E-1,-7.308657E-2,-1.3984232E-1,1.51599925E-2],"categories":[],"categories_nodes":[],"categories_segments":[],"categories_sizes":[],"default_left":[0,0,0,0,0,0,0,0,0,0,0,0,0,0,0,0,0,0,0,0,0,0,0,0,0,0,0],"id":8,"left_children":[1,3,5,7,9,11,13,-1,-1,-1,15,17,-1,-1,19,-1,-1,21,23,-1,-1,-1,-1,-1,25,-1,-1],"loss_changes":[1.8150514E0,8.8388693E-1,2.3081234E0,8.526988E-1,1.9475389E0,1.4885976E0,4.2923784E-1,0E0,0E0,0E0,7.9770994E-1,1.1561348E0,0E0,0E0,2.3893833E-2,0E0,0E0,5.829071E-1,2.181534E0,0E0,0E0,0E0,0E0,0E0,2.0641327E0,0E0,0E0],"parents":[2147483647,0,0,1,1,2,2,3,3,4,4,5,5,6,6,10,10,11,11,14,14,17,17,18,18,24,24],"right_children":[2,4,6,8,10,12,14,-1,-1,-1,16,18,-1,-1,20,-1,-1,22,24,-1,-1,-1,-1,-1,26,-1,-1],"split_conditions":[5.2E-1,7E0,2.42E0,7.1E-1,1.5E1,1.85E0,4.4E-1,-2.2161864E-2,2.6375568E-1,2.2504337E-1,5.1E-1,6.3E-1,-2.221365E-1,-2.47535E-3,1E1,-2.2757155E-1,4.702294E-2,5.5E-1,7.8E-1,6.798455E-2,2.4226986E-1,-2.5307462E-1,-2.4890693E-2,2.6610935E-1,4.5E-1,-1.3984232E-1,1.51599925E-2],"split_indices":[1,4,0,0,2,1,10,0,0,0,10,0,0,0,3,0,0,10,0,0,0,0,0,0,10,0,0],"split_type":[0,0,0,0,0,0,0,0,0,0,0,0,0,0,0,0,0,0,0,0,0,0,0,0,0,0,0],"sum_hessian":[6.1384483E1,8.213603E0,5.317088E1,4.372499E0,3.8411045E0,4.884225E1,4.3286257E0,1.0098078E0,3.362691E0,1.3165878E0,2.5245168E0,4.622017E1,2.6220841E0,1.0090754E0,3.3195503E0,1.4334009E0,1.091116E0,3.715476E0,4.2504692E1,1.129778E0,2.1897724E0,1.7358041E0,1.979672E0,1.508304E0,4.0996387E1,9.145891E0,3.1850498E1],"tree_param":{"num_deleted":"0","num_feature":"11","num_nodes":"27","size_leaf_vector":"1"}},{"base_weights":[1.4917231E-2,6.811338E-1,-2.6801582E-2,2.4614917E-1,6.0404412E-2,-6.5161526E-2,5.618743E-1,-2.803332E-2,-1.9917732E-1,3.779893E-2,2.048253E-1,-5.8874343E-2,2.2031751E-1,-1.02952935E-1,4.135736E-1,-5.1086344E-2,1.0086397E-1,-3.0682456E-2,2.7207822E-1],"categories":[],"categories_nodes":[],"categories_segments":[],"categories_sizes":[],"default_left":[0,0,0,0,0,0,0,0,0,0,0,0,0,0,0,0,0,0,0],"id":9,"left_children":[1,3,5,-1,-1,7,9,11,-1,-1,-1,13,-1,15,17,-1,-1,-1,-1],"loss_changes":[1.6982958E0,7.550681E-2,1.3428814E0,0E0,0E0,1.2086252E0,1.0590494E-1,1.2900589E0,0E0,0E0,0E0,1.1231589E0,0E0,1.4844081E0,1.270396E0,0E0,0E0,0E0,0E0],"parents":[2147483647,0,0,1,1,2,2,5,5,6,6,7,7,11,11,13,13,14,14],"right_children":[2,4,6,-1,-1,8,10,12,-1,-1,-1,14,-1,16,18,-1,-1,-1,-1],"split_conditions":[4E0,5E0,2.67E0,2.4614917E-1,6.0404412E-2,1.9E0,4.8E-1,2E0,-1.9917732E-1,3.779893E-2,2.048253E-1,8E0,2.2031751E-1,6.2E-1,1.7E1,-5.1086344E-2,1.0086397E-1,-3.0682456E-2,2.7207822E-1],"split_indices":[3,5,0,0,0,1,1,8,0,0,0,5,0,10,2,0,0,0,0],"split_type":[0,0,0,0,0,0,0,0,0,0,0,0,0,0,0,0,0,0,0],"sum_hessian":[5.944667E1,2.5999966E0,5.6846672E1,1.4644771E0,1.1355195E0,5.4203888E1,2.642785E0,5.2024746E1,2.179142E0,1.0171883E0,1.6255968E0,5.0889004E1,1.1357423E0,4.7261658E1,3.6273465E0,4.1509487E1,5.7521687E0,2.1607602E0,1.4665864E0],"tree_param":{"num_deleted":"0","num_feature":"11","num_nodes":"19","size_leaf_vector":"1"}},{"base_weights":[2.6251785E-2,2.8100035E-1,-5.8151536E-2,-3.602486E-1,4.2742518E-1,-1.2487228E-1,3.7843883E-1,4.988993E-2,-2.2243807E-1,-9.029128E-2,5.406399E-1,-2.121773E-1,1.9802402E-1,-7.894955E-2,6.0682416E-1,2.2277914E-1,2.541212E-1,-1.01100884E-1,-5.453962E-1,-2.583155E-1,6.06041E-1,2.7641714E-1,-6.392143E-2,3.84824E-1,-7.523914E-2,1.4822716E-1,-3.216906E-1,-7.671149E-1,7.7431515E-2,1.191378E-1,-5.4010034E-1,2.2283008E-2,2.2254266E-1,-4.6936158E-2,1.8188015E-1,-5.8314506E-2,1.654918E-1,-1.3561265E-1,9.160153E-2,-2.8319845E-1,2.195527E-2,-2.2425926E-1,-3.680211E-2],"categories":[],"categories_nodes":[],"categories_segments":[],"categories_sizes":[],"default_left":[0,0,0,0,0,0,0,0,0,0,0,0,0,0,0,0,0,0,0,0,0,0,0,0,0,0,0,0,0,0,0,0,0,0,0,0,0,0,0,0,0,0,0],"id":10,"left_children":[1,3,5,7,9,11,13,-1,-1,-1,15,17,19,-1,21,23,-1,25,27,29,31,-1,-1,33,-1,35,37,39,-1,-1,41,-1,-1,-1,-1,-1,-1,-1,-1,-1,-1,-1,-1],"loss_changes":[1.2901177E0,1.554374E0,1.3675996E0,7.887485E-1,1.2017231E0,1.1716001E0,1.0765135E0,0E0,0E0,0E0,9.082415E-1,1.1301656E0,1.8407649E0,0E0,1.4644066E0,6.2485564E-1,0E0,1.4361682E0,1.5837803E0,1.1326058E0,3.1125736E-1,0E0,0E0,7.5699043E-1,0E0,1.8397758E0,1.2586154E0,1.0126297E0,0E0,0E0,2.460022E-1,0E0,0E0,0E0,0E0,0E0,0E0,0E0,0E0,0E0,0E0,0E0,0E0],"parents":[2147483647,0,0,1,1,2,2,3,3,4,4,5,5,6,6,10,10,11,11,12,12,14,14,15,15,17,17,18,18,19,19,20,20,23,23,25,25,26,26,27,27,30,30],"right_children":[2,4,6,8,10,12,14,-1,-1,-1,16,18,20,-1,22,24,-1,26,28,30,32,-1,-1,34,-1,36,38,40,-1,-1,42,-1,-1,-1,-1,-1,-1,-1,-1,-1,-1,-1,-1],"split_conditions":[7E-1,2E0,9E0,1.82E0,4.9E-1,1E0,1.3E1,4.988993E-2,-2.2243807E-1,-9.029128E-2,5.3E-1,7E0,1.6E1,-7.894955E-2,2.2E1,2E1,2.541212E-1,1.2E1,2.28E0,1E0,1.2E1,2.7641714E-1,-6.392143E-2,4E0,-7.523914E-2,1E1,1.9E1,6.1E-1,7.7431515E-2,1.191378E-1,1.3E1,2.2283008E-2,2.2254266E-1,-4.6936158E-2,1.8188015E-1,-5.8314506E-2,1.654918E-1,-1.3561265E-1,9.160153E-2,-2.8319845E-1,2.195527E-2,-2.2425926E-1,-3.680211E-2],"split_indices":[1,5,4,0,0,8,2,0,0,0,10,4,2,0,2,2,0,3,0,1,3,0,0,4,0,3,2,10,0,0,3,0,0,0,0,0,0,0,0,0,0,0,0],"split_type":[0,0,0,0,0,0,0,0,0,0,0,0,0,0,0,0,0,0,0,0,0,0,0,0,0,0,0,0,0,0,0,0,0,0,0,0,0,0,0,0,0,0,0],"sum_hessian":[5.824097E1,1.39145155E1,4.4326454E1,2.3151803E0,1.1599336E1,3.9069714E1,5.2567406E0,1.209004E0,1.1061763E0,1.3372679E0,1.0262068E1,3.1024242E1,8.045472E0,1.3399967E0,3.9167442E0,5.884788E0,4.3772798E0,2.4245548E1,6.778693E0,3.9710362E0,4.0744357E0,2.741235E0,1.1755091E0,4.524154E0,1.3606336E0,1.1535382E1,1.2710166E1,5.3481936E0,1.4304994E0,1.0708584E0,2.9001777E0,1.1433483E0,2.9310875E0,1.3987187E0,3.1254356E0,6.517972E0,5.0174103E0,1.0753682E1,1.9564843E0,4.3162384E0,1.0319556E0,1.4091339E0,1.4910438E0],"tree_param":{"num_deleted":"0","num_feature":"11","num_nodes":"43","size_leaf_vector":"1"}},{"base_weights":[2.314076E-2,5.2679114E-2,-1.9017732E-1,1.3775834E-1,-2.0893858E-1,7.671488E-2,2.3690693E-1,-3.3806467E-1,1.347499E-1,5.728661E-1,3.2308042E-2,-2.2183563E-1,-1.3632098E-1,2.1081924E-1,5.222875E-2,1.9254808E-1,-1.5664051E-1,1.5893725E-1,-2.816006E-1,-1.6625768E-1,8.3295435E-2,-1.3401449E-1,4.738961E-2,-1.6347656E-1,5.267167E-2],"categories":[],"categories_nodes":[],"categories_segments":[],"categories_sizes":[],"default_left":[0,0,0,0,0,0,0,0,0,0,0,0,0,0,0,0,0,0,0,0,0,0,0,0,0],"id":11,"left_children":[1,3,-1,5,7,9,-1,11,-1,13,15,-1,17,-1,-1,19,21,-1,23,-1,-1,-1,-1,-1,-1],"loss_changes":[1.1380367E0,1.2616613E0,0E0,1.6267674E0,1.3406932E0,8.6008704E-1,0E0,8.924506E-1,0E0,4.420936E-2,1.1704297E0,0E0,1.0577857E0,0E0,0E0,1.477447E0,1.6980625E0,0E0,1.1021783E0,0E0,0E0,0E0,0E0,0E0,0E0],"parents":[2147483647,0,0,1,1,3,3,4,4,5,5,7,7,9,9,10,10,12,12,15,15,16,16,18,18],"right_children":[2,4,-1,6,8,10,-1,12,-1,14,16,-1,18,-1,-1,20,22,-1,24,-1,-1,-1,-1,-1,-1],"split_conditions":[1E0,1.3E0,-1.9017732E-1,1E0,2.36E0,4E0,2.3690693E-1,1.1E1,1.347499E-1,3E0,6E0,-2.2183563E-1,1.2E1,2.1081924E-1,5.222875E-2,4.1E-1,4E0,1.5893725E-1,1.47E0,-1.6625768E-1,8.3295435E-2,-1.3401449E-1,4.738961E-2,-1.6347656E-1,5.267167E-2],"split_indices":[7,1,0,9,0,3,0,3,0,5,4,0,3,0,0,0,5,0,0,0,0,0,0,0,0],"split_type":[0,0,0,0,0,0,0,0,0,0,0,0,0,0,0,0,0,0,0,0,0,0,0,0,0],"sum_hessian":[5.591503E1,5.4389767E1,1.5252645E0,4.1399803E1,1.2989962E1,3.8877216E1,2.5225868E0,1.1265814E1,1.7241477E0,2.216145E0,3.666107E1,2.876818E0,8.388996E0,1.0967346E0,1.1194105E0,1.982727E1,1.6833801E1,1.0281585E0,7.3608375E0,1.4645517E0,1.836272E1,8.53989E0,8.29391E0,4.548859E0,2.811978E0],"tree_param":{"num_deleted":"0","num_feature":"11","num_nodes":"25","size_leaf_vector":"1"}},{"base_weights":[1.8014526E-2,4.8782364E-2,-1.6107535E-1,7.556528E-2,-1.6196504E-1,3.81815E-2,4.6068537E-1,-1.3945313E-2,3.493741E-1,2.045867E-1,-1.9271608E-2,-3.3267733E-1,1.0759885E-1,6.217619E-1,8.920499E-2,1.7429408E-1,-1.5876271E-1,2.5876945E-1,1.0818315E-2,3.4376353E-2,2.5571105E-1,-1.1109765E-1,1.706254E-1],"categories":[],"categories_nodes":[],"categories_segments":[],"categories_sizes":[],"default_left":[0,0,0,0,0,0,0,0,0,0,0,0,0,0,0,0,0,0,0,0,0,0,0],"id":12,"left_children":[1,3,-1,5,-1,7,9,11,13,-1,-1,15,17,19,21,-1,-1,-1,-1,-1,-1,-1,-1],"loss_changes":[9.7012174E-1,8.810856E-1,0E0,7.2897637E-1,0E0,7.892936E-1,5.6622994E-1,1.677622E0,4.389273E-1,0E0,0E0,2.4521804E0,1.6667364E0,2.8134882E-1,1.2542119E0,0E0,0E0,0E0,0E0,0E0,0E0,0E0,0E0],"parents":[2147483647,0,0,1,1,3,3,5,5,6,6,7,7,8,8,11,11,12,12,13,13,14,14],"right_children":[2,4,-1,6,-1,8,10,12,14,-1,-1,16,18,20,22,-1,-1,-1,-1,-1,-1,-1,-1],"split_conditions":[1.9E0,1E0,-1.6107535E-1,1E0,-1.6196504E-1,1.7E1,1.27E0,1.13E0,9.7E-1,2.045867E-1,-1.9271608E-2,4.8E-1,1.2E0,6.8E-1,8E0,1.7429408E-1,-1.5876271E-1,2.5876945E-1,1.0818315E-2,3.4376353E-2,2.5571105E-1,-1.1109765E-1,1.706254E-1],"split_indices":[1,7,0,9,0,3,1,0,0,0,0,1,0,0,4,0,0,0,0,0,0,0,0],"split_type":[0,0,0,0,0,0,0,0,0,0,0,0,0,0,0,0,0,0,0,0,0,0,0],"sum_hessian":[5.42844E1,5.229693E1,1.9874738E0,5.085479E1,1.4421403E0,4.7356968E1,3.49782E0,4.1380627E1,5.9763403E0,2.2501624E0,1.2476577E0,1.0944132E1,3.0436495E1,2.2406363E0,3.735704E0,1.5910985E0,9.353033E0,1.6773463E0,2.875915E1,1.1682378E0,1.0723984E0,2.0239708E0,1.7117332E0],"tree_param":{"num_deleted":"0","num_feature":"11","num_nodes":"23","size_leaf_vector":"1"}},{"base_weights":[2.1603905E-2,1.5640019E-1,-8.101664E-3,-3.7083674E-2,4.604475E-1,5.0192494E-3,-5.637222E-1,3.521281E-2,1.7118853E-1,-1.8009572E-1,8.726852E-2,3.76623E-5,-2.5021943E-1,-3.4118545E-1,1.9633943E-1,-1.7167018E-1,2.948095E-1,-2.513091E-2,-2.2913943E-1,3.0171841E-2,-1.9751878E-1,3.0439707E-2,2.2449604E-1],"categories":[],"categories_nodes":[],"categories_segments":[],"categories_sizes":[],"default_left":[0,0,0,0,0,0,0,0,0,0,0,0,0,0,0,0,0,0,0,0,0,0,0],"id":13,"left_children":[1,-1,3,5,7,9,11,-1,-1,13,15,-1,-1,17,-1,19,21,-1,-1,-1,-1,-1,-1],"loss_changes":[8.046618E-1,0E0,7.215779E-1,1.1066748E0,5.00741E-2,7.3267466E-1,5.632179E-1,0E0,0E0,2.214662E0,1.8389105E0,0E0,0E0,1.3582113E0,0E0,2.1117468E0,1.5759917E0,0E0,0E0,0E0,0E0,0E0,0E0],"parents":[2147483647,0,0,2,2,3,3,4,4,5,5,6,6,9,9,10,10,13,13,15,15,16,16],"right_children":[2,-1,4,6,8,10,12,-1,-1,14,16,-1,-1,18,-1,20,22,-1,-1,-1,-1,-1,-1],"split_conditions":[4E0,1.5640019E-1,2.67E0,2.3E1,4E0,1E1,1E1,3.521281E-2,1.7118853E-1,5.9E-1,5E0,3.76623E-5,-2.5021943E-1,1.06E0,1.9633943E-1,5.7E-1,1.8E1,-2.513091E-2,-2.2913943E-1,3.0171841E-2,-1.9751878E-1,3.0439707E-2,2.2449604E-1],"split_indices":[3,0,0,2,5,3,3,0,0,10,4,0,0,1,0,10,2,0,0,0,0,0,0],"split_type":[0,0,0,0,0,0,0,0,0,0,0,0,0,0,0,0,0,0,0,0,0,0,0],"sum_hessian":[5.2920567E1,2.0406768E0,5.0879887E1,4.8783264E1,2.0966246E0,4.608907E1,2.6941924E0,1.0117213E0,1.0849034E0,1.3812415E1,3.2276657E1,1.1970552E0,1.4971372E0,1.2073186E1,1.7392286E0,1.443707E1,1.7839586E1,8.247689E0,3.8254967E0,9.7672615E0,4.669808E0,1.3365323E1,4.4742637E0],"tree_param":{"num_deleted":"0","num_feature":"11","num_nodes":"23","size_leaf_vector":"1"}},{"base_weights":[1.8270286E-2,4.584878E-2,-4.2661735E-1,1.9141088E-1,-4.7870703E-2,-1.825557E-1,-1.2954718E-2,-4.9623188E-2,4.7650278E-1,1.8811774E-1,-9.324293E-2,2.2478895E-1,-4.7437346E-1,4.0634954E-3,7.882888E-1,-4.3106306E-1,3.209058E-2,-1.17180005E-1,6.144774E-1,2.5826586E-2,-2.6416534E-1,1.4139527E-1,-1.6144596E-1,3.981969E-1,2.9253E-1,-5.818114E-1,8.66687E-2,1.4403711E-1,-4.0818974E-1,1.1552598E-1,-1.05165444E-1,-3.3598559E-3,2.7383283E-1,1.77874E-1,-9.730507E-3,-5.6091256E-2,-2.2526486E-1,8.531112E-3,1.9985501E-1,-1.9270693E-1,7.313091E-2],"categories":[],"categories_nodes":[],"categories_segments":[],"categories_sizes":[],"default_left":[0,0,0,0,0,0,0,0,0,0,0,0,0,0,0,0,0,0,0,0,0,0,0,0,0,0,0,0,0,0,0,0,0,0,0,0,0,0,0,0,0],"id":14,"left_children":[1,3,5,7,9,-1,-1,11,13,-1,15,17,19,21,23,25,27,29,31,-1,-1,-1,-1,33,-1,35,-1,37,39,-1,-1,-1,-1,-1,-1,-1,-1,-1,-1,-1,-1],"loss_changes":[6.646244E-1,6.968485E-1,1.9453877E-1,1.3941299E0,1.0220387E0,0E0,0E0,1.4718267E0,1.3565569E0,0E0,1.2990274E0,1.1106575E0,1.1955094E0,1.4381318E0,1.6601324E-2,1.067097E0,1.1958977E0,7.20019E-1,7.2001684E-1,0E0,0E0,0E0,0E0,3.1181705E-1,0E0,3.3898473E-1,0E0,1.1359253E0,9.104082E-1,0E0,0E0,0E0,0E0,0E0,0E0,0E0,0E0,0E0,0E0,0E0,0E0],"parents":[2147483647,0,0,1,1,2,2,3,3,4,4,7,7,8,8,10,10,11,11,12,12,13,13,14,14,15,15,16,16,17,17,18,18,23,23,25,25,27,27,28,28],"right_children":[2,4,6,8,10,-1,-1,12,14,-1,16,18,20,22,24,26,28,30,32,-1,-1,-1,-1,34,-1,36,-1,38,40,-1,-1,-1,-1,-1,-1,-1,-1,-1,-1,-1,-1],"split_conditions":[1.85E0,1.4E1,1.9E1,1.28E0,4E0,-1.825557E-1,-1.2954718E-2,1.01E0,1.1E1,1.8811774E-1,3E0,7.2E-1,5.5E-1,1.4E1,1.1E1,1.5E1,1.6E1,4.2E-1,5E0,2.5826586E-2,-2.6416534E-1,1.4139527E-1,-1.6144596E-1,8E0,2.9253E-1,2E0,8.66687E-2,6E-1,1.9E1,1.1552598E-1,-1.05165444E-1,-3.3598559E-3,2.7383283E-1,1.77874E-1,-9.730507E-3,-5.6091256E-2,-2.2526486E-1,8.531112E-3,1.9985501E-1,-1.9270693E-1,7.313091E-2],"split_indices":[1,2,2,0,3,0,0,0,2,0,5,0,10,3,3,3,3,1,4,0,0,0,0,3,0,5,0,10,2,0,0,0,0,0,0,0,0,0,0,0,0],"split_type":[0,0,0,0,0,0,0,0,0,0,0,0,0,0,0,0,0,0,0,0,0,0,0,0,0,0,0,0,0,0,0,0,0,0,0,0,0,0,0,0,0],"sum_hessian":[5.157536E1,4.940942E1,2.165937E0,1.8943932E1,3.0465488E1,1.0708873E0,1.0950496E0,1.0712701E1,8.231231E0,1.1114784E0,2.9354012E1,6.7941065E0,3.9185944E0,3.6752605E0,4.55597E0,7.2833533E0,2.2070658E1,3.9910665E0,2.8030403E0,1.9777114E0,1.9408829E0,2.0443254E0,1.6309352E0,2.4893508E0,2.0666194E0,6.1810236E0,1.1023299E0,1.8132982E1,3.937676E0,1.0598769E0,2.9311895E0,1.2156622E0,1.5873779E0,1.4547293E0,1.0346216E0,2.4845662E0,3.6964571E0,1.5709462E1,2.4235196E0,2.9079473E0,1.0297287E0],"tree_param":{"num_deleted":"0","num_feature":"11","num_nodes":"41","size_leaf_vector":"1"}},{"base_weights":[2.1171665E-2,4.292706E-2,-1.352754E-1,-1.7175977E-1,1.06009655E-1,1.9416611E-1,-3.1858703E-1,-1.318013E-1,1.36052E-1,8.946857E-2,-4.9078095E-1,4.617358E-2,3.2897207E-1,-5.97549E-1,-8.384104E-3,1.7488052E-1,-1.6004087E-1,4.916684E-2,2.2814249E-1,1.960367E-2,-2.1710894E-1,8.335695E-2,-9.2783086E-2,1.0380374E-1,-1.1471873E-1,1.5526596E-1,-7.4371465E-2],"categories":[],"categories_nodes":[],"categories_segments":[],"categories_sizes":[],"default_left":[0,0,0,0,0,0,0,0,0,0,0,0,0,0,0,0,0,0,0,0,0,0,0,0,0,0,0],"id":15,"left_children":[1,3,-1,5,7,-1,9,-1,11,-1,13,15,17,19,-1,21,23,25,-1,-1,-1,-1,-1,-1,-1,-1,-1],"loss_changes":[5.410664E-1,6.882111E-1,0E0,1.6031243E0,6.963582E-1,0E0,1.2638264E0,0E0,6.365977E-1,0E0,4.0842056E-1,7.39467E-1,1.3853148E0,6.27738E-1,0E0,9.326443E-1,1.3502274E0,1.2717079E0,0E0,0E0,0E0,0E0,0E0,0E0,0E0,0E0,0E0],"parents":[2147483647,0,0,1,1,3,3,4,4,6,6,8,8,10,10,11,11,12,12,13,13,15,15,16,16,17,17],"right_children":[2,4,-1,6,8,-1,10,-1,12,-1,14,16,18,20,-1,22,24,26,-1,-1,-1,-1,-1,-1,-1,-1,-1],"split_conditions":[1E0,4.5E-1,-1.352754E-1,7.4E-1,4.4E-1,1.9416611E-1,6.3E-1,-1.318013E-1,6E0,8.946857E-2,1.9E1,1.7E1,1.78E0,3.7E-1,-8.384104E-3,1.45E0,5E-1,1.3E1,2.2814249E-1,1.960367E-2,-2.1710894E-1,8.335695E-2,-9.2783086E-2,1.0380374E-1,-1.1471873E-1,1.5526596E-1,-7.4371465E-2],"split_indices":[7,10,0,0,0,0,1,0,5,0,2,2,0,10,0,1,10,2,0,0,0,0,0,0,0,0,0],"split_type":[0,0,0,0,0,0,0,0,0,0,0,0,0,0,0,0,0,0,0,0,0,0,0,0,0,0,0],"sum_hessian":[4.979694E1,4.8472256E1,1.324686E0,1.0617002E1,3.7855255E1,1.0959455E0,9.521055E0,1.2651689E0,3.6590084E1,1.9181434E0,7.6029124E0,2.5806557E1,1.0783527E1,5.94129E0,1.6616222E0,1.5982911E1,9.823647E0,7.2173963E0,3.5661306E0,1.0269161E0,4.914374E0,1.3531076E1,2.451835E0,2.8290155E0,6.994631E0,2.5130088E0,4.7043877E0],"tree_param":{"num_deleted":"0","num_feature":"11","num_nodes":"27","size_leaf_vector":"1"}},{"base_weights":[1.7477265E-2,-8.282277E-3,1.2904334E-1,5.190322E-2,-2.7562207E-1,8.490342E-2,-1.7700896E-1,-4.329504E-1,1.7602581E-1,5.1599152E-2,1.963479E-1,3.7427288E-2,-6.330581E-1,9.425462E-2,-1.4504832E-2,1.5565345E-1,-1.1699442E-1,-2.5579292E-2,-7.9812706E-1,7.462316E-2,-1.1575938E-1,-1.1967846E-1,5.189315E-2,-2.9046604E-1,-6.9825344E-2],"categories":[],"categories_nodes":[],"categories_segments":[],"categories_sizes":[],"default_left":[0,0,0,0,0,0,0,0,0,0,0,0,0,0,0,0,0,0,0,0,0,0,0,0,0],"id":16,"left_children":[1,3,-1,5,7,9,-1,11,13,15,-1,-1,17,-1,-1,19,21,-1,23,-1,-1,-1,-1,-1,-1],"loss_changes":[5.3269017E-1,7.839345E-1,0E0,8.950088E-1,7.120389E-1,7.024213E-1,0E0,8.518708E-1,1.0889047E-1,6.804633E-1,0E0,0E0,4.0770006E-1,0E0,0E0,1.29435E0,1.2935094E0,0E0,1.519494E-1,0E0,0E0,0E0,0E0,0E0,0E0],"parents":[2147483647,0,0,1,1,3,3,4,4,5,5,7,7,8,8,9,9,12,12,15,15,16,16,18,18],"right_children":[2,4,-1,6,8,10,-1,12,14,16,-1,-1,18,-1,-1,20,22,-1,24,-1,-1,-1,-1,-1,-1],"split_conditions":[2.67E0,2E1,1.2904334E-1,1.83E0,2.21E0,1E1,-1.7700896E-1,7.3E-1,2.49E0,6E0,1.963479E-1,3.7427288E-2,5E-1,9.425462E-2,-1.4504832E-2,2.05E0,4E0,-2.5579292E-2,1.26E0,7.462316E-2,-1.1575938E-1,-1.1967846E-1,5.189315E-2,-2.9046604E-1,-6.9825344E-2],"split_indices":[0,2,0,1,0,4,0,1,0,4,0,0,10,0,0,0,5,0,1,0,0,0,0,0,0],"split_type":[0,0,0,0,0,0,0,0,0,0,0,0,0,0,0,0,0,0,0,0,0,0,0,0,0],"sum_hessian":[4.8776268E1,4.6832798E1,1.9434705E0,3.888465E1,7.9481454E0,3.7808735E1,1.0759162E0,5.9254537E0,2.0226915E0,3.67505E1,1.0582353E0,1.6640971E0,4.261357E0,1.0041475E0,1.018544E0,2.277237E1,1.3978131E1,1.3379169E0,2.92344E0,1.9893248E1,2.879122E0,6.896777E0,7.0813537E0,1.6995937E0,1.2238464E0],"tree_param":{"num_deleted":"0","num_feature":"11","num_nodes":"25","size_leaf_vector":"1"}},{"base_weights":[7.62883E-3,-1.0817842E-1,1.0960635E-1,1.569967E-1,-1.802489E-1,2.1511109E-1,-1.2043711E-3,-1.6880022E-2,-4.3541268E-1,-1.0233198E-1,5.794112E-1,-2.4604204E-1,1.0917022E-1,4.392066E-2,-5.50284E-1,-5.790182E-1,2.7748886E-2,2.3195E-1,1.9889737E-2,2.895938E-1,-4.8356465E-1,-1.4189854E-1,-2.0624816E-1,-3.754016E-2,-2.0530649E-1,1.6005269E-1,-1.70212E-1,1.4740218E-1,-1.7871588E-2,-1.8612489E-1,-2.7749266E-2,6.062485E-2,-1.2535612E-1,-9.6939534E-2,9.97707E-2],"categories":[],"categories_nodes":[],"categories_segments":[],"categories_sizes":[],"default_left":[0,0,0,0,0,0,0,0,0,0,0,0,0,0,0,0,0,0,0,0,0,0,0,0,0,0,0,0,0,0,0,0,0,0,0],"id":17,"left_children":[1,3,5,-1,7,-1,9,11,13,15,17,-1,19,-1,21,23,25,-1,-1,27,29,31,-1,-1,-1,33,-1,-1,-1,-1,-1,-1,-1,-1,-1],"loss_changes":[5.9294593E-1,1.1658354E0,1.795418E0,0E0,9.045391E-1,0E0,1.4418337E0,1.5452093E0,6.4854395E-1,1.3122325E0,3.1090677E-1,0E0,1.5633824E0,0E0,3.119068E-1,1.3080549E-1,1.4589607E0,0E0,0E0,7.920928E-1,1.2887847E-1,3.784919E-1,0E0,0E0,0E0,1.3574734E0,0E0,0E0,0E0,0E0,0E0,0E0,0E0,0E0,0E0],"parents":[2147483647,0,0,1,1,2,2,4,4,6,6,7,7,8,8,9,9,10,10,12,12,14,14,15,15,16,16,19,19,20,20,21,21,25,25],"right_children":[2,4,6,-1,8,-1,10,12,14,16,18,-1,20,-1,22,24,26,-1,-1,28,30,32,-1,-1,-1,34,-1,-1,-1,-1,-1,-1,-1,-1,-1],"split_conditions":[1.48E0,4.8E-1,1.56E0,1.569967E-1,6E0,2.1511109E-1,6.2E-1,5.7E-1,7.6E-1,1.72E0,6.7E-1,-2.4604204E-1,6E-1,4.392066E-2,9.7E-1,7.5E-1,5.8E-1,2.3195E-1,1.9889737E-2,1.4E1,1.4E1,4E0,-2.0624816E-1,-3.754016E-2,-2.0530649E-1,4.5E-1,-1.70212E-1,1.4740218E-1,-1.7871588E-2,-1.8612489E-1,-2.7749266E-2,6.062485E-2,-1.2535612E-1,-9.6939534E-2,9.97707E-2],"split_indices":[0,1,0,0,4,0,10,1,1,0,10,0,10,0,0,1,10,0,0,3,3,5,0,0,0,10,0,0,0,0,0,0,0,0,0],"split_type":[0,0,0,0,0,0,0,0,0,0,0,0,0,0,0,0,0,0,0,0,0,0,0,0,0,0,0,0,0,0,0,0,0,0,0],"sum_hessian":[4.8204224E1,2.254311E1,2.5661112E1,1.6678356E0,2.0875275E1,3.11497E0,2.2546143E1,1.3376871E1,7.498403E0,1.9903278E1,2.642863E0,1.0675313E0,1.23093405E1,1.1910971E0,6.307306E0,3.527051E0,1.6376228E1,1.5505456E0,1.0923176E0,9.828925E0,2.480415E0,2.097768E0,4.2095375E0,1.076495E0,2.450556E0,1.3995825E1,2.3804035E0,5.971454E0,3.8574708E0,1.4029803E0,1.0774349E0,1.0529503E0,1.0448178E0,3.4526308E0,1.0543194E1],"tree_param":{"num_deleted":"0","num_feature":"11","num_nodes":"35","size_leaf_vector":"1"}},{"base_weights":[-1.6947564E-3,-3.4202073E-2,2.7354753E-1,3.253604E-3,-4.5095995E-1,-8.834155E-2,4.8589274E-1,-3.580956E-2,1.4611898E-1,-1.73531E-1,-2.960044E-2,5.5261612E-2,1.9290279E-1,2.0560378E-2,-3.6257282E-1,1.4787051E-1,-1.53084565E-2,-5.921429E-1,8.182183E-2,-1.2900235E-1,1.239162E-2,-2.2853251E-1,-6.739156E-2],"categories":[],"categories_nodes":[],"categories_segments":[],"categories_sizes":[],"default_left":[0,0,0,0,0,0,0,0,0,0,0,0,0,0,0,0,0,0,0,0,0,0,0],"id":18,"left_children":[1,3,5,7,9,-1,11,13,-1,-1,-1,-1,-1,15,17,-1,19,21,-1,-1,-1,-1,-1],"loss_changes":[4.351809E-1,6.797797E-1,7.6283765E-1,7.89724E-1,1.0417181E-1,0E0,7.6720715E-2,7.210683E-1,0E0,0E0,0E0,0E0,0E0,5.8338666E-1,1.000675E0,0E0,7.8218067E-1,1.120168E-1,0E0,0E0,0E0,0E0,0E0],"parents":[2147483647,0,0,1,1,2,2,3,3,4,4,6,6,7,7,13,13,14,14,16,16,17,17],"right_children":[2,4,6,8,10,-1,12,14,-1,-1,-1,-1,-1,16,18,-1,20,22,-1,-1,-1,-1,-1],"split_conditions":[2.42E0,1.66E0,4.4E-1,1.55E0,1.6E1,-8.834155E-2,5.2E-1,1.3E0,1.4611898E-1,-1.73531E-1,-2.960044E-2,5.5261612E-2,1.9290279E-1,3.7E-1,1.7E1,1.4787051E-1,4.3E-1,5.3E-1,8.182183E-2,-1.2900235E-1,1.239162E-2,-2.2853251E-1,-6.739156E-2],"split_indices":[0,1,1,1,3,0,10,1,0,0,0,0,0,10,3,0,10,10,0,0,0,0,0],"split_type":[0,0,0,0,0,0,0,0,0,0,0,0,0,0,0,0,0,0,0,0,0,0,0],"sum_hessian":[4.6592106E1,4.2453857E1,4.138248E0,3.9863373E1,2.5904858E0,1.0208185E0,3.1174295E0,3.7742035E1,2.121337E0,1.4308194E0,1.1596663E0,1.8114963E0,1.3059332E0,3.29883E1,4.753734E0,1.4289739E0,3.1559326E1,3.54184E0,1.2118938E0,2.9986458E0,2.856068E1,1.6892743E0,1.8525658E0],"tree_param":{"num_deleted":"0","num_feature":"11","num_nodes":"23","size_leaf_vector":"1"}},{"base_weights":[-3.4473767E-3,1.7309023E-2,-1.2877004E-1,-3.4394017E-1,4.2078465E-2,-1.4336923E-2,-1.3994567E-1,7.941186E-2,-2.300165E-1,4.1295387E-2,4.6102127E-1,3.4069203E-2,-4.4698206E-1,9.639102E-2,-2.533409E-1,1.8862204E-1,3.632333E-2,-2.0825228E-1,1.9333751E-3,-3.8075827E-2,6.1241057E-2,-1.969866E-1,1.5038171E-1],"categories":[],"categories_nodes":[],"categories_segments":[],"categories_sizes":[],"default_left":[0,0,0,0,0,0,0,0,0,0,0,0,0,0,0,0,0,0,0,0,0,0,0],"id":19,"left_children":[1,3,-1,5,7,-1,-1,9,11,13,15,-1,17,19,21,-1,-1,-1,-1,-1,-1,-1,-1],"loss_changes":[4.2234164E-1,4.2363054E-1,0E0,8.8147044E-2,4.6201187E-1,0E0,0E0,5.5051285E-1,4.6278414E-1,6.201566E-1,1.21002614E-1,0E0,4.0689933E-1,7.872329E-1,2.172424E0,0E0,0E0,0E0,0E0,0E0,0E0,0E0,0E0],"parents":[2147483647,0,0,1,1,3,3,4,4,7,7,8,8,9,9,10,10,12,12,13,13,14,14],"right_children":[2,4,-1,6,8,-1,-1,10,12,14,16,-1,18,20,22,-1,-1,-1,-1,-1,-1,-1,-1],"split_conditions":[1E0,6E0,-1.2877004E-1,1.4E1,2.2E1,-1.4336923E-2,-1.3994567E-1,2.42E0,5E-1,2.05E0,2.61E0,3.4069203E-2,2.4E1,1E1,8E0,1.8862204E-1,3.632333E-2,-2.0825228E-1,1.9333751E-3,-3.8075827E-2,6.1241057E-2,-1.969866E-1,1.5038171E-1],"split_indices":[7,2,0,3,2,0,0,0,10,0,0,0,2,3,4,0,0,0,0,0,0,0,0],"split_type":[0,0,0,0,0,0,0,0,0,0,0,0,0,0,0,0,0,0,0,0,0,0,0],"sum_hessian":[4.5947502E1,4.4726505E1,1.2209985E0,2.0431132E0,4.268339E1,1.0048089E0,1.0383043E0,3.8156227E1,4.527163E0,3.569873E1,2.4574988E0,1.9367541E0,2.5904088E0,3.0641716E1,5.0570135E0,1.0767276E0,1.3807712E0,1.3328398E0,1.257569E0,9.91476E0,2.0726955E1,3.3803434E0,1.6766698E0],"tree_param":{"num_deleted":"0","num_feature":"11","num_nodes":"23","size_leaf_vector":"1"}},{"base_weights":[-7.6435735E-3,-1.1283766E-1,8.793726E-2,1.3451783E-1,-1.7443164E-1,1.8073408E-1,-5.185999E-3,-8.660418E-2,-5.130668E-1,-9.4318755E-2,5.235258E-1,-1.9977435E-1,5.035174E-1,-2.0514235E-1,-6.2315546E-2,-3.0536604E-1,9.7026505E-2,2.0375104E-1,2.7683714E-2,-1.05834454E-1,-1.7978318E-1,2.1376368E-1,2.1882964E-2,6.237634E-2,-4.0191826E-1,-1.6861594E-1,2.570827E-1,-6.764542E-2,1.9592555E-1,-1.5307179E-1,5.604325E-2,-1.16756104E-1,1.5073732E-1],"categories":[],"categories_nodes":[],"categories_segments":[],"categories_sizes":[],"default_left":[0,0,0,0,0,0,0,0,0,0,0,0,0,0,0,0,0,0,0,0,0,0,0,0,0,0,0,0,0,0,0,0,0],"id":20,"left_children":[1,3,5,-1,7,-1,9,11,13,15,17,19,21,-1,-1,23,25,-1,-1,27,-1,-1,-1,-1,29,-1,31,-1,-1,-1,-1,-1,-1],"loss_changes":[4.7748947E-1,8.5863805E-1,1.1974397E0,0E0,5.8202535E-1,0E0,1.0907643E0,1.2979405E0,7.353151E-2,8.2749385E-1,1.615532E-1,5.2802265E-1,2.3324561E-1,0E0,0E0,5.6112736E-1,1.3176789E0,0E0,0E0,1.416154E0,0E0,0E0,0E0,0E0,6.3428473E-1,0E0,1.7233583E0,0E0,0E0,0E0,0E0,0E0,0E0],"parents":[2147483647,0,0,1,1,2,2,4,4,6,6,7,7,8,8,9,9,10,10,11,11,12,12,15,15,16,16,19,19,24,24,26,26],"right_children":[2,4,6,-1,8,-1,10,12,14,16,18,20,22,-1,-1,24,26,-1,-1,28,-1,-1,-1,-1,30,-1,32,-1,-1,-1,-1,-1,-1],"split_conditions":[1.48E0,4.8E-1,1.56E0,1.3451783E-1,1.37E0,1.8073408E-1,6.2E-1,1.29E0,4E0,4E0,6.7E-1,1.2E0,4E0,-2.0514235E-1,-6.2315546E-2,6E0,1.68E0,2.0375104E-1,2.7683714E-2,1.16E0,-1.7978318E-1,2.1376368E-1,2.1882964E-2,6.237634E-2,9E0,-1.6861594E-1,9E0,-6.764542E-2,1.9592555E-1,-1.5307179E-1,5.604325E-2,-1.16756104E-1,1.5073732E-1],"split_indices":[0,1,0,0,0,0,10,0,5,5,10,0,4,0,0,3,0,0,0,0,0,0,0,0,4,0,3,0,0,0,0,0,0],"split_type":[0,0,0,0,0,0,0,0,0,0,0,0,0,0,0,0,0,0,0,0,0,0,0,0,0,0,0,0,0,0,0,0,0],"sum_hessian":[4.5503063E1,2.157622E1,2.3926844E1,1.512732E0,2.0063488E1,2.8287177E0,2.1098125E1,1.6928663E1,3.134825E0,1.8757504E1,2.3406231E0,1.4759617E1,2.1690466E0,1.2156421E0,1.9191829E0,8.63619E0,1.0121312E1,1.2974514E0,1.0431718E0,1.2973838E1,1.7857785E0,1.019327E0,1.1497195E0,1.1846966E0,7.4514937E0,1.4869109E0,8.634401E0,1.1814126E1,1.1597126E0,6.4061403E0,1.0453533E0,2.2148442E0,6.419557E0],"tree_param":{"num_deleted":"0","num_feature":"11","num_nodes":"33","size_leaf_vector":"1"}},{"base_weights":[1.888661E-3,2.5639396E-2,-1.1629846E-1,-1.1308728E-1,4.863495E-2,1.01934984E-1,-1.7186369E-1,1.7142259E-2,2.5464687E-1,-3.94031E-1,9.287019E-2,1.7491803E-1,-3.8617812E-2,6.013167E-1,1.2866786E-2,2.03239E-2,-2.0673402E-1,1.181028E-1,-1.2439096E-1,8.209281E-3,-1.3499533E-1,6.2626093E-3,2.2273274E-1,-4.7978047E-2,1.4569816E-1,6.787273E-2,-1.4984709E-1],"categories":[],"categories_nodes":[],"categories_segments":[],"categories_sizes":[],"default_left":[0,0,0,0,0,0,0,0,0,0,0,0,0,0,0,0,0,0,0,0,0,0,0,0,0,0,0],"id":21,"left_children":[1,3,-1,-1,5,7,9,11,13,15,17,-1,19,21,23,-1,-1,-1,25,-1,-1,-1,-1,-1,-1,-1,-1],"loss_changes":[4.2870566E-1,4.219674E-1,0E0,0E0,5.1264E-1,4.430858E-1,5.4084235E-1,7.574685E-1,1.0202532E0,7.078593E-1,3.5751772E-1,0E0,6.1324364E-1,3.9549887E-1,7.5143254E-1,0E0,0E0,0E0,5.7348967E-1,0E0,0E0,0E0,0E0,0E0,0E0,0E0,0E0],"parents":[2147483647,0,0,1,1,4,4,5,5,6,6,7,7,8,8,9,9,10,10,12,12,13,13,14,14,18,18],"right_children":[2,4,-1,-1,6,8,10,12,14,16,18,-1,20,22,24,-1,-1,-1,26,-1,-1,-1,-1,-1,-1,-1,-1],"split_conditions":[1.85E0,4.4E-1,-1.1629846E-1,-1.1308728E-1,2E1,1.67E0,1.92E0,5.2E-1,1.92E0,1.67E0,7E0,1.7491803E-1,1.56E0,9E0,8E0,2.03239E-2,-2.0673402E-1,1.181028E-1,5.7E-1,8.209281E-3,-1.3499533E-1,6.2626093E-3,2.2273274E-1,-4.7978047E-2,1.4569816E-1,6.787273E-2,-1.4984709E-1],"split_indices":[1,0,0,0,2,0,0,1,0,0,4,0,0,3,4,0,0,0,10,0,0,0,0,0,0,0,0],"split_type":[0,0,0,0,0,0,0,0,0,0,0,0,0,0,0,0,0,0,0,0,0,0,0,0,0,0,0],"sum_hessian":[4.4261734E1,4.259869E1,1.6630449E0,1.4699938E0,4.1128696E1,3.355526E1,7.5734386E0,2.2290686E1,1.1264573E1,3.8522162E0,3.7212224E0,1.151127E0,2.1139559E1,4.0173554E0,7.247217E0,1.802259E0,2.0499573E0,1.2200397E0,2.5011828E0,1.9021967E1,2.1175919E0,1.0102363E0,3.0071192E0,5.792099E0,1.4551182E0,1.4978639E0,1.0033189E0],"tree_param":{"num_deleted":"0","num_feature":"11","num_nodes":"27","size_leaf_vector":"1"}},{"base_weights":[2.0392202E-3,1.1657508E-1,-2.1028321E-2,-4.881728E-2,2.854467E-1,-2.4768327E-1,1.3418677E-2,-2.0221636E-2,1.797245E-1,9.44547E-2,-3.7054837E-1,-1.3447864E-1,1.4198636E-1,2.1900399E-2,-4.6176642E-1,1.7337574E-1,-5.264038E-1,-6.479931E-2,3.3566046E-1,-1.6766144E-1,-1.7211607E-2,-1.02352485E-1,1.1380544E-1,3.1993654E-2,-2.619955E-1,-7.33491E-2,6.5014556E-2,1.3740666E-1,-7.019281E-2],"categories":[],"categories_nodes":[],"categories_segments":[],"categories_sizes":[],"default_left":[0,0,0,0,0,0,0,0,0,0,0,0,0,0,0,0,0,0,0,0,0,0,0,0,0,0,0,0,0],"id":22,"left_children":[1,-1,3,5,7,9,11,-1,-1,-1,13,15,17,-1,19,21,23,25,27,-1,-1,-1,-1,-1,-1,-1,-1,-1,-1],"loss_changes":[4.0420732E-1,0E0,3.789813E-1,5.002867E-1,4.5089257E-1,7.817181E-1,6.186518E-1,0E0,0E0,0E0,3.7182236E-1,1.9224405E0,7.167711E-1,0E0,2.454809E-1,1.1100327E0,1.6138548E0,5.199702E-1,7.4305737E-1,0E0,0E0,0E0,0E0,0E0,0E0,0E0,0E0,0E0,0E0],"parents":[2147483647,0,0,2,2,3,3,4,4,5,5,6,6,10,10,11,11,12,12,14,14,15,15,16,16,17,17,18,18],"right_children":[2,-1,4,6,8,10,12,-1,-1,-1,14,16,18,-1,20,22,24,26,28,-1,-1,-1,-1,-1,-1,-1,-1,-1,-1],"split_conditions":[4E0,1.1657508E-1,8E0,4.5E-1,1.7E1,8.4E-1,1.48E0,-2.0221636E-2,1.797245E-1,9.44547E-2,6.3E-1,1.3E1,4E0,2.1900399E-2,1.9E1,8E-1,9.2E-1,5.6E-1,2.3E1,-1.6766144E-1,-1.7211607E-2,-1.02352485E-1,1.1380544E-1,3.1993654E-2,-2.619955E-1,-7.33491E-2,6.5014556E-2,1.3740666E-1,-7.019281E-2],"split_indices":[3,0,5,10,2,0,0,0,0,0,1,2,5,0,2,1,1,10,2,0,0,0,0,0,0,0,0,0,0],"split_type":[0,0,0,0,0,0,0,0,0,0,0,0,0,0,0,0,0,0,0,0,0,0,0,0,0,0,0,0,0],"sum_hessian":[4.3415447E1,1.55262E0,4.1862827E1,3.9153393E1,2.7094355E0,8.622309E0,3.0531084E1,1.6444476E0,1.0649878E0,1.2655386E0,7.35677E0,1.4176838E1,1.6354246E1,1.2889464E0,6.067824E0,8.252326E0,5.924512E0,8.231211E0,8.123035E0,4.584884E0,1.4829396E0,2.17144E0,6.080886E0,2.3425028E0,3.5820093E0,5.104424E0,3.1267867E0,6.8479824E0,1.2750528E0],"tree_param":{"num_deleted":"0","num_feature":"11","num_nodes":"29","size_leaf_vector":"1"}},{"base_weights":[1.2318726E-3,-1.0580379E-1,2.5216682E-2,3.277101E-1,-6.1422894E-3,1.9864647E-1,-6.8086977E-3,-3.0329654E-1,4.0997334E-2,-1.8558441E-1,1.6907832E-2,2.6549855E-1,-4.3132447E-2,1.4184058E-1,-1.4145312E-1,-1.092358E-1,4.4584137E-1,-4.4287193E-1,3.902299E-2,-8.277265E-5,2.2751205E-1,1.0208251E-1,-2.3787022E-1,6.287346E-2,-3.9016902E-2],"categories":[],"categories_nodes":[],"categories_segments":[],"categories_sizes":[],"default_left":[0,0,0,0,0,0,0,0,0,0,0,0,0,0,0,0,0,0,0,0,0,0,0,0,0],"id":23,"left_children":[1,-1,3,5,7,-1,-1,9,11,-1,13,15,17,-1,-1,-1,19,21,23,-1,-1,-1,-1,-1,-1],"loss_changes":[3.7558144E-1,0E0,3.9463133E-1,4.7279686E-1,5.515025E-1,0E0,0E0,5.544785E-1,6.554208E-1,0E0,1.0349411E0,1.2335249E0,8.600297E-1,0E0,0E0,0E0,1.0853462E0,1.4912672E0,6.6761196E-1,0E0,0E0,0E0,0E0,0E0,0E0],"parents":[2147483647,0,0,2,2,3,3,4,4,7,7,8,8,10,10,11,11,12,12,16,16,17,17,18,18],"right_children":[2,-1,4,6,8,-1,-1,10,12,-1,14,16,18,-1,-1,-1,20,22,24,-1,-1,-1,-1,-1,-1],"split_conditions":[6E0,-1.0580379E-1,3.9E-1,4E0,4.4E-1,1.9864647E-1,-6.8086977E-3,5E0,5E-1,-1.8558441E-1,1.55E0,7E0,5.2E-1,1.4184058E-1,-1.4145312E-1,-1.092358E-1,1.47E0,1.4E1,1.2E1,-8.277265E-5,2.2751205E-1,1.0208251E-1,-2.3787022E-1,6.287346E-2,-3.9016902E-2],"split_indices":[2,0,10,4,10,0,0,4,10,0,0,3,10,0,0,0,0,2,3,0,0,0,0,0,0],"split_type":[0,0,0,0,0,0,0,0,0,0,0,0,0,0,0,0,0,0,0,0,0,0,0,0,0],"sum_hessian":[4.2198257E1,1.8084942E0,4.0389763E1,2.9061656E0,3.7483597E1,1.0317407E0,1.874425E0,4.3881288E0,3.309547E1,1.7413824E0,2.6467464E0,8.433845E0,2.4661625E1,1.3854903E0,1.2612562E0,1.6509529E0,6.7828918E0,3.4558778E0,2.1205746E1,3.2058651E0,3.5770266E0,1.0760999E0,2.379778E0,1.0437556E1,1.076819E1],"tree_param":{"num_deleted":"0","num_feature":"11","num_nodes":"25","size_leaf_vector":"1"}},{"base_weights":[-1.0651484E-3,-1.6929553E-1,4.414678E-2,1.2450935E-1,-4.0162244E-1,1.08980514E-1,-1.7853707E-1,-7.396121E-2,3.2827282E-1,-2.0173816E-1,7.35092E-2,4.4212094E-1,-3.590104E-3,-1.9051544E-1,9.304032E-2,1.662084E-1,3.456685E-3,-1.4751603E-2,6.000457E-1,-8.4827E-2,3.8701788E-1,-3.209594E-1,4.0073133E-1,2.2691943E-1,5.7357375E-2,-3.5856423E-1,1.0577878E-2,-3.2310765E-2,1.8821281E-1,-3.1707253E-2,-1.15629636E-1,-2.484725E-2,1.9575703E-1,8.472659E-2,-2.4909231E-1,-3.2243077E-2,1.7941844E-1],"categories":[],"categories_nodes":[],"categories_segments":[],"categories_sizes":[],"default_left":[0,0,0,0,0,0,0,0,0,0,0,0,0,0,0,0,0,0,0,0,0,0,0,0,0,0,0,0,0,0,0,0,0,0,0,0,0],"id":24,"left_children":[1,3,5,7,9,11,13,-1,15,-1,-1,17,19,-1,21,-1,-1,-1,23,25,27,29,31,-1,-1,33,35,-1,-1,-1,-1,-1,-1,-1,-1,-1,-1],"loss_changes":[3.3004323E-1,6.773162E-1,5.1349944E-1,4.454653E-1,1.1050334E0,1.018794E0,1.0627416E0,0E0,2.4684373E-1,0E0,0E0,5.6164944E-1,7.0762295E-1,0E0,8.863014E-1,0E0,0E0,0E0,1.9201446E-1,4.8496467E-1,5.2430797E-1,2.1658838E-3,5.2363485E-1,0E0,0E0,1.6830451E0,1.0792243E0,0E0,0E0,0E0,0E0,0E0,0E0,0E0,0E0,0E0,0E0],"parents":[2147483647,0,0,1,1,2,2,3,3,4,4,5,5,6,6,8,8,11,11,12,12,14,14,18,18,19,19,20,20,21,21,22,22,25,25,26,26],"right_children":[2,4,6,8,10,12,14,-1,16,-1,-1,18,20,-1,22,-1,-1,-1,24,26,28,30,32,-1,-1,34,36,-1,-1,-1,-1,-1,-1,-1,-1,-1,-1],"split_conditions":[1.1E1,1.2E1,5.8E-1,5.2E-1,1.8E1,1.4E1,1.29E0,-7.396121E-2,3E0,-2.0173816E-1,7.35092E-2,6.8E-1,5.4E-1,-1.9051544E-1,6E-1,1.662084E-1,3.456685E-3,-1.4751603E-2,7E0,8E0,1.1E1,1.2E1,5E0,2.2691943E-1,5.7357375E-2,7E0,9E0,-3.2310765E-2,1.8821281E-1,-3.1707253E-2,-1.15629636E-1,-2.484725E-2,1.9575703E-1,8.472659E-2,-2.4909231E-1,-3.2243077E-2,1.7941844E-1],"split_indices":[2,3,10,10,3,2,0,0,5,0,0,1,10,0,10,0,0,0,4,3,3,3,4,0,0,4,4,0,0,0,0,0,0,0,0,0,0],"split_type":[0,0,0,0,0,0,0,0,0,0,0,0,0,0,0,0,0,0,0,0,0,0,0,0,0,0,0,0,0,0,0,0,0,0,0,0,0],"sum_hessian":[4.1409744E1,8.190179E0,3.3219563E1,3.8215077E0,4.3686714E0,2.612419E1,7.095375E0,1.2802657E0,2.541242E0,3.050937E0,1.3177345E0,5.8586516E0,2.0265537E1,2.1473525E0,4.948023E0,1.0463712E0,1.4948707E0,1.5926532E0,4.265999E0,1.7424501E1,2.8410363E0,2.091192E0,2.8568308E0,2.4710045E0,1.7949941E0,3.7904727E0,1.3634028E1,1.1094348E0,1.7316014E0,1.0902518E0,1.0009402E0,1.2079939E0,1.6488371E0,1.7771182E0,2.0133545E0,1.2033044E1,1.6009843E0],"tree_param":{"num_deleted":"0","num_feature":"11","num_nodes":"37","size_leaf_vector":"1"}},{"base_weights":[4.722918E-3,1.770731E-1,-5.1709134E-2,2.817423E-1,-6.177484E-2,2.9482794E-1,-9.7417325E-2,-5.7248496E-2,3.7110347E-1,1.5434739E-1,-3.479263E-2,-1.6238138E-1,-5.0820034E-2,5.7730675E-1,-5.0479174E-2,1.6100527E-1,-1.0151024E-1,2.0674331E-1,2.5721801E-2,2.6697282E-2,-5.0877243E-2,-1.4704219E-1,2.9164663E-1,-8.63458E-2,-7.844967E-3,1.0929009E-2,1.2012261E-1],"categories":[],"categories_nodes":[],"categories_segments":[],"categories_sizes":[],"default_left":[0,0,0,0,0,0,0,0,0,0,0,0,0,0,0,0,0,0,0,0,0,0,0,0,0,0,0],"id":25,"left_children":[1,3,5,7,-1,9,11,-1,13,-1,-1,-1,15,17,19,-1,21,-1,-1,-1,-1,23,25,-1,-1,-1,-1],"loss_changes":[4.1001135E-1,4.7460496E-1,5.3277457E-1,4.333074E-1,0E0,4.1670647E-1,5.695058E-1,0E0,6.86205E-1,0E0,0E0,0E0,8.6531496E-1,2.2437656E-1,7.161156E-2,0E0,5.066196E-1,0E0,0E0,0E0,0E0,3.9890718E-1,6.935066E-2,0E0,0E0,0E0,0E0],"parents":[2147483647,0,0,1,1,2,2,3,3,5,5,6,6,8,8,12,12,13,13,14,14,16,16,21,21,22,22],"right_children":[2,4,6,8,-1,10,12,-1,14,-1,-1,-1,16,18,20,-1,22,-1,-1,-1,-1,24,26,-1,-1,-1,-1],"split_conditions":[7E-1,1.4E1,2E0,4.9E-1,-6.177484E-2,1.7E1,6.7E-1,-5.7248496E-2,7E0,1.5434739E-1,-3.479263E-2,-1.6238138E-1,7.8E-1,1E1,1.92E0,1.6100527E-1,2.42E0,2.0674331E-1,2.5721801E-2,2.6697282E-2,-5.0877243E-2,5E0,1.16E0,-8.63458E-2,-7.844967E-3,1.0929009E-2,1.2012261E-1],"split_indices":[1,3,5,0,0,2,0,0,4,0,0,0,0,3,0,0,0,0,0,0,0,4,1,0,0,0,0],"split_type":[0,0,0,0,0,0,0,0,0,0,0,0,0,0,0,0,0,0,0,0,0,0,0,0,0,0,0],"sum_hessian":[4.0214478E1,9.392095E0,3.0822382E1,7.583829E0,1.808266E0,2.9566083E0,2.7865774E1,1.0254493E0,6.5583797E0,1.7620227E0,1.1945854E0,1.6388898E0,2.6226883E1,4.1561537E0,2.402226E0,1.3216225E0,2.4905262E1,3.058398E0,1.0977557E0,1.2230319E0,1.179194E0,2.2881342E1,2.0239186E0,9.933338E0,1.2948005E1,1.0036786E0,1.02024E0],"tree_param":{"num_deleted":"0","num_feature":"11","num_nodes":"27","size_leaf_vector":"1"}},{"base_weights":[1.0152841E-2,3.297662E-2,-1.0669075E-1,7.57099E-2,-1.5090273E-1,-6.9316495E-3,2.346575E-1,-2.944406E-1,1.6585004E-1,-1.77334E-1,1.423146E-1,5.3071034E-1,2.5908133E-2,4.3098435E-2,-4.6353564E-1,-3.4135588E-2,1.08427785E-1,2.538853E-1,-3.4024185E-1,1.743257E-1,-4.518915E-2,2.0972265E-1,-1.8534904E-3,-1.1720558E-1,1.2837669E-1,-1.7379696E-2,-1.7137437E-1,-5.51342E-2,1.9203925E-1,6.310777E-2,-1.3423592E-1,-1.4590755E-1,4.6634205E-2,-8.0987826E-2,9.1910176E-2],"categories":[],"categories_nodes":[],"categories_segments":[],"categories_sizes":[],"default_left":[0,0,0,0,0,0,0,0,0,0,0,0,0,0,0,0,0,0,0,0,0,0,0,0,0,0,0,0,0,0,0,0,0,0,0],"id":26,"left_children":[1,3,-1,5,7,9,11,13,15,17,19,21,23,-1,25,-1,-1,27,29,-1,31,-1,-1,33,-1,-1,-1,-1,-1,-1,-1,-1,-1,-1,-1],"loss_changes":[3.4884772E-1,3.1727755E-1,0E0,4.2524594E-1,3.9774287E-1,5.895481E-1,6.6979486E-1,4.8450443E-1,2.0698766E-1,8.4545577E-1,1.0450742E0,4.1312003E-1,4.838427E-1,0E0,1.550672E-1,0E0,0E0,7.153079E-1,5.823069E-1,0E0,9.2568624E-1,0E0,0E0,4.9317896E-1,0E0,0E0,0E0,0E0,0E0,0E0,0E0,0E0,0E0,0E0,0E0],"parents":[2147483647,0,0,1,1,3,3,4,4,5,5,6,6,7,7,8,8,9,9,10,10,11,11,12,12,14,14,17,17,18,18,20,20,23,23],"right_children":[2,4,-1,6,8,10,12,14,16,18,20,22,24,-1,26,-1,-1,28,30,-1,32,-1,-1,34,-1,-1,-1,-1,-1,-1,-1,-1,-1,-1,-1],"split_conditions":[1.85E0,2E1,-1.0669075E-1,1.67E0,2.21E0,5E0,1.92E0,7.3E-1,4.8E-1,7.8E-1,7.8E-1,6E0,8E0,4.3098435E-2,5E-1,-3.4135588E-2,1.08427785E-1,5.3E-1,9E0,1.743257E-1,1.1E1,2.0972265E-1,-1.8534904E-3,2.42E0,1.2837669E-1,-1.7379696E-2,-1.7137437E-1,-5.51342E-2,1.9203925E-1,6.310777E-2,-1.3423592E-1,-1.4590755E-1,4.6634205E-2,-8.0987826E-2,9.1910176E-2],"split_indices":[1,2,0,0,0,4,0,1,1,0,1,4,4,0,10,0,0,0,3,0,3,0,0,0,0,0,0,0,0,0,0,0,0,0,0],"split_type":[0,0,0,0,0,0,0,0,0,0,0,0,0,0,0,0,0,0,0,0,0,0,0,0,0,0,0,0,0,0,0,0,0,0,0],"sum_hessian":[3.9380047E1,3.792361E1,1.4564368E0,3.1249529E1,6.67408E0,2.1189087E1,1.0060442E1,4.641297E0,2.0327828E0,9.805468E0,1.1383619E1,3.5224688E0,6.5379734E0,1.3344167E0,3.3068805E0,1.0087177E0,1.0240653E0,2.5355015E0,7.2699666E0,2.7797532E0,8.603866E0,2.451581E0,1.070888E0,5.3440056E0,1.1939677E0,1.016599E0,2.2902813E0,1.4343665E0,1.101135E0,1.0280647E0,6.241902E0,2.2444913E0,6.359375E0,4.19413E0,1.1498758E0],"tree_param":{"num_deleted":"0","num_feature":"11","num_nodes":"35","size_leaf_vector":"1"}},{"base_weights":[1.5666775E-2,3.5312787E-2,-9.0595074E-2,5.396018E-2,-9.627148E-2,1.2719508E-1,-4.0380523E-2,2.6925188E-1,-3.688537E-2,-2.0477879E-1,1.3799259E-1,-1.2391238E-1,4.7270688E-1,-1.3378096E-1,1.4411083E-1,1.2117838E-1,-3.5302207E-1,-2.7928135E-1,3.743125E-1,-1.08838476E-1,1.1160848E-1,1.8741576E-1,-1.6124802E-2,1.4817253E-1,-4.2975925E-2,-1.6799659E-1,2.939798E-2,-2.1942959E-3,-1.4693531E-1,1.6951597E-1,-6.2188182E-2],"categories":[],"categories_nodes":[],"categories_segments":[],"categories_sizes":[],"default_left":[0,0,0,0,0,0,0,0,0,0,0,0,0,0,0,0,0,0,0,0,0,0,0,0,0,0,0,0,0,0,0],"id":27,"left_children":[1,3,-1,5,-1,7,9,11,13,15,17,19,21,-1,23,-1,25,27,29,-1,-1,-1,-1,-1,-1,-1,-1,-1,-1,-1,-1],"loss_changes":[2.555421E-1,2.6873282E-1,0E0,2.5954598E-1,0E0,4.987447E-1,5.224166E-1,9.6731037E-1,8.4985244E-1,9.7023475E-1,9.604423E-1,6.8780214E-1,6.4931834E-1,0E0,8.8613665E-1,0E0,7.931646E-1,2.0887232E-1,7.792721E-1,0E0,0E0,0E0,0E0,0E0,0E0,0E0,0E0,0E0,0E0,0E0,0E0],"parents":[2147483647,0,0,1,1,3,3,5,5,6,6,7,7,8,8,9,9,10,10,11,11,12,12,14,14,16,16,17,17,18,18],"right_children":[2,4,-1,6,-1,8,10,12,14,16,18,20,22,-1,24,-1,26,28,30,-1,-1,-1,-1,-1,-1,-1,-1,-1,-1,-1,-1],"split_conditions":[1.85E0,1E0,-9.0595074E-2,6E0,-9.627148E-2,1.01E0,4E0,1.15E0,1.14E0,9.7E-1,1.4E0,9.3E-1,1.4E1,-1.3378096E-1,1.3E0,1.2117838E-1,1.09E0,1.2E1,1E0,-1.08838476E-1,1.1160848E-1,1.8741576E-1,-1.6124802E-2,1.4817253E-1,-4.2975925E-2,-1.6799659E-1,2.939798E-2,-2.1942959E-3,-1.4693531E-1,1.6951597E-1,-6.2188182E-2],"split_indices":[1,7,0,4,0,1,5,0,1,0,0,1,3,0,1,0,1,3,8,0,0,0,0,0,0,0,0,0,0,0,0],"split_type":[0,0,0,0,0,0,0,0,0,0,0,0,0,0,0,0,0,0,0,0,0,0,0,0,0,0,0,0,0,0,0],"sum_hessian":[3.8239765E1,3.684953E1,1.3902354E0,3.5822784E1,1.0267433E0,1.9971241E1,1.5851545E1,1.0360446E1,9.610794E0,8.171872E0,7.679673E0,3.6663706E0,6.6940756E0,2.4990826E0,7.111712E0,1.2626202E0,6.9092517E0,2.711008E0,4.968665E0,2.6556702E0,1.0107005E0,5.0494237E0,1.6446522E0,2.883264E0,4.228448E0,4.570347E0,2.338905E0,1.6342833E0,1.0767248E0,3.7630239E0,1.2056414E0],"tree_param":{"num_deleted":"0","num_feature":"11","num_nodes":"31","size_leaf_vector":"1"}},{"base_weights":[9.968746E-3,9.915118E-2,-1.0793103E-2,2.3232674E-2,-2.5287846E-1,-1.004583E-2,1.135458E-1,4.070648E-3,-1.3139431E-1,1.08918935E-1,-3.7141863E-2,-2.0391583E-1,3.766293E-2,-1.565673E-1,2.5319977E-2,1.0758963E-1,-4.2901593E-3],"categories":[],"categories_nodes":[],"categories_segments":[],"categories_sizes":[],"default_left":[0,0,0,0,0,0,0,0,0,0,0,0,0,0,0,0,0],"id":28,"left_children":[1,-1,3,5,7,9,-1,-1,-1,-1,11,13,15,-1,-1,-1,-1],"loss_changes":[2.5633714E-1,0E0,3.0768675E-1,3.944219E-1,2.3278621E-1,3.287586E-1,0E0,0E0,0E0,0E0,3.817059E-1,9.094317E-1,3.644102E-1,0E0,0E0,0E0,0E0],"parents":[2147483647,0,0,2,2,3,3,4,4,5,5,10,10,11,11,12,12],"right_children":[2,-1,4,6,8,10,-1,-1,-1,-1,12,14,16,-1,-1,-1,-1],"split_conditions":[4E0,9.915118E-2,2.2E1,2.42E0,1E1,3.7E-1,1.135458E-1,4.070648E-3,-1.3139431E-1,1.08918935E-1,4.8E-1,1.1E1,5E-1,-1.565673E-1,2.5319977E-2,1.0758963E-1,-4.2901593E-3],"split_indices":[3,0,2,0,3,10,0,0,0,0,10,3,10,0,0,0,0],"split_type":[0,0,0,0,0,0,0,0,0,0,0,0,0,0,0,0,0],"sum_hessian":[3.698252E1,1.3421843E0,3.564034E1,3.2040928E1,3.5994112E0,3.0185051E1,1.8558756E0,1.8553743E0,1.7440369E0,1.2042031E0,2.8980848E1,8.439465E0,2.0541384E1,3.6280527E0,4.811412E0,2.0398664E0,1.8501516E1],"tree_param":{"num_deleted":"0","num_feature":"11","num_nodes":"17","size_leaf_vector":"1"}},{"base_weights":[1.1487767E-2,2.2925822E-1,-2.259917E-2,-2.0188508E-3,1.3537158E-1,-5.2932337E-2,2.937466E-1,9.9344425E-2,-1.0917362E-1,-4.8056473E-3,-3.001E-1,1.3615408E-2,1.1797904E-1,-5.447647E-2,1.4465848E-1,-2.5946847E-3,-1.2807779E-1,1.04552746E-1,-2.0408763E-1,-1.3849321E-2,8.015884E-2,-2.3268828E-1,-2.344668E-2],"categories":[],"categories_nodes":[],"categories_segments":[],"categories_sizes":[],"default_left":[0,0,0,0,0,0,0,0,0,0,0,0,0,0,0,0,0,0,0,0,0,0,0],"id":29,"left_children":[1,3,5,7,-1,9,11,-1,-1,13,15,-1,-1,17,-1,-1,-1,19,21,-1,-1,-1,-1],"loss_changes":[2.8454083E-1,2.67009E-1,3.3653238E-1,5.4660237E-1,0E0,3.717279E-1,5.826506E-2,0E0,0E0,6.860311E-1,1.8469366E-1,0E0,0E0,6.315847E-1,0E0,0E0,0E0,3.333161E-1,9.149617E-1,0E0,0E0,0E0,0E0],"parents":[2147483647,0,0,1,1,2,2,3,3,5,5,6,6,9,9,10,10,13,13,17,17,18,18],"right_children":[2,4,6,8,-1,10,12,-1,-1,14,16,-1,-1,18,-1,-1,-1,20,22,-1,-1,-1,-1],"split_conditions":[5.2E-1,8E0,2.42E0,5E0,1.3537158E-1,2E1,1.08E0,9.9344425E-2,-1.0917362E-1,1.9E1,5E-1,1.3615408E-2,1.1797904E-1,1.2E1,1.4465848E-1,-2.5946847E-3,-1.2807779E-1,1E1,1.3E1,-1.3849321E-2,8.015884E-2,-2.3268828E-1,-2.344668E-2],"split_indices":[1,3,0,5,0,2,1,0,0,2,10,0,0,3,0,0,0,3,3,0,0,0,0],"split_type":[0,0,0,0,0,0,0,0,0,0,0,0,0,0,0,0,0,0,0,0,0,0,0],"sum_hessian":[3.66337E1,4.1831584E0,3.2450542E1,2.5339694E0,1.649189E0,3.0371056E1,2.0794868E0,1.3635819E0,1.1703874E0,2.6274517E1,4.0965395E0,1.0114026E0,1.0680842E0,2.4648657E1,1.6258605E0,1.5660013E0,2.5305383E0,1.2094245E1,1.2554411E1,6.64898E0,5.4452653E0,1.3352607E0,1.121915E1],"tree_param":{"num_deleted":"0","num_feature":"11","num_nodes":"23","size_leaf_vector":"1"}},{"base_weights":[1.0299193E-2,5.3776104E-2,-1.3868544E-1,1.607584E-2,3.5226154E-1,-3.9368314E-1,1.3410349E-1,1.052508E-1,-2.1662398E-1,1.3370498E-1,2.4893925E-2,-3.446463E-2,-4.6925652E-1,-5.7519037E-2,1.18107736E-1,2.406438E-2,1.7019626E-1,4.3871887E-2,-1.5615773E-1,-1.7127895E-1,-3.5391647E-2,8.638158E-2,-1.4182618E-1,-2.2003189E-1,9.65325E-2,6.431743E-2,-4.9024124E-2,1.8374762E-2,-1.247019E-1],"categories":[],"categories_nodes":[],"categories_segments":[],"categories_sizes":[],"default_left":[0,0,0,0,0,0,0,0,0,0,0,0,0,0,0,0,0,0,0,0,0,0,0,0,0,0,0,0,0],"id":30,"left_children":[1,3,5,7,9,11,13,15,17,-1,-1,-1,19,-1,-1,21,-1,23,-1,-1,-1,25,-1,27,-1,-1,-1,-1,-1],"loss_changes":[2.4738185E-1,3.251008E-1,6.542679E-1,5.8608645E-1,4.4736475E-2,4.560852E-2,4.9193108E-1,7.477863E-1,6.44084E-1,0E0,0E0,0E0,5.3786993E-2,0E0,0E0,6.0767424E-1,0E0,4.4833684E-1,0E0,0E0,0E0,5.822595E-1,0E0,2.0344277E-1,0E0,0E0,0E0,0E0,0E0],"parents":[2147483647,0,0,1,1,2,2,3,3,4,4,5,5,6,6,7,7,8,8,12,12,15,15,17,17,21,21,23,23],"right_children":[2,4,6,8,10,12,14,16,18,-1,-1,-1,20,-1,-1,22,-1,24,-1,-1,-1,26,-1,28,-1,-1,-1,-1,-1],"split_conditions":[1.3E0,1.23E0,1.6E1,1.4E1,5E0,1.45E0,1.4E1,1.3E1,9.8E-1,1.3370498E-1,2.4893925E-2,-3.446463E-2,1.7E0,-5.7519037E-2,1.18107736E-1,1.2E1,1.7019626E-1,8E-1,-1.5615773E-1,-1.7127895E-1,-3.5391647E-2,1.8E1,-1.4182618E-1,5.4E-1,9.65325E-2,6.431743E-2,-4.9024124E-2,1.8374762E-2,-1.247019E-1],"split_indices":[1,1,2,3,4,1,3,3,1,0,0,0,1,0,0,3,0,1,0,0,0,2,0,10,0,0,0,0,0],"split_type":[0,0,0,0,0,0,0,0,0,0,0,0,0,0,0,0,0,0,0,0,0,0,0,0,0,0,0,0,0],"sum_hessian":[3.60402E1,2.8393435E1,7.6467643E0,2.6145039E1,2.2483964E0,3.7232063E0,3.9235582E0,1.929755E1,6.847488E0,1.1829243E0,1.0654721E0,1.3314471E0,2.391759E0,1.8557044E0,2.067854E0,1.73085E1,1.9890504E0,4.1477737E0,2.6997142E0,1.3699781E0,1.021781E0,1.6113476E1,1.1950241E0,2.234284E0,1.9134897E0,1.0747536E1,5.36594E0,1.1983289E0,1.0359551E0],"tree_param":{"num_deleted":"0","num_feature":"11","num_nodes":"29","size_leaf_vector":"1"}},{"base_weights":[3.090875E-3,2.3145538E-2,-9.251796E-2,-8.549909E-2,4.2625263E-2,2.4449843E-1,1.2984736E-2,1.7243117E-1,-7.3474854E-2,-2.2569679E-2,2.3188387E-1,4.6535697E-2,-8.087492E-2,1.7085904E-2,-1.1231621E-1,-1.3111689E-2,1.4065473E-1,5.948001E-2,-1.767609E-2],"categories":[],"categories_nodes":[],"categories_segments":[],"categories_sizes":[],"default_left":[0,0,0,0,0,0,0,0,0,0,0,0,0,0,0,0,0,0,0],"id":31,"left_children":[1,3,-1,-1,5,7,9,-1,11,13,15,-1,-1,17,-1,-1,-1,-1,-1],"loss_changes":[2.3427907E-1,2.2279136E-1,0E0,0E0,1.9952537E-1,4.9181256E-1,2.4334756E-1,0E0,1.7934285E-1,3.8631266E-1,3.0546078E-1,0E0,0E0,3.6186138E-1,0E0,0E0,0E0,0E0,0E0],"parents":[2147483647,0,0,1,1,4,4,5,5,6,6,8,8,9,9,10,10,13,13],"right_children":[2,4,-1,-1,6,8,10,-1,12,14,16,-1,-1,18,-1,-1,-1,-1,-1],"split_conditions":[1.85E0,4.4E-1,-9.251796E-2,-8.549909E-2,5.2E-1,7E0,2.21E0,1.7243117E-1,2.18E0,2.05E0,4E0,4.6535697E-2,-8.087492E-2,3E0,-1.1231621E-1,-1.3111689E-2,1.4065473E-1,5.948001E-2,-1.767609E-2],"split_indices":[1,0,0,0,1,4,0,0,0,0,5,0,0,5,0,0,0,0,0],"split_type":[0,0,0,0,0,0,0,0,0,0,0,0,0,0,0,0,0,0,0],"sum_hessian":[3.5361736E1,3.4092415E1,1.2693213E0,1.2166256E0,3.287579E1,3.2810056E0,2.9594784E1,1.2132363E0,2.0677693E0,2.6231121E1,3.363662E0,1.0513152E0,1.016454E0,2.4429008E1,1.8021117E0,1.9321457E0,1.4315163E0,6.7441034E0,1.7684906E1],"tree_param":{"num_deleted":"0","num_feature":"11","num_nodes":"19","size_leaf_vector":"1"}},{"base_weights":[3.141239E-3,-1.4837724E-2,8.8653535E-2,9.875374E-3,-8.56138E-2,2.6429558E-1,-1.9214882E-2,-3.467619E-2,1.7030928E-1,-2.0377886E-1,5.024783E-2,-1.5831734E-1,-2.870227E-2,4.1004777E-1,-9.626462E-3,5.247141E-2,-8.299743E-2,1.5421095E-1,3.7582323E-2,-1.0015361E-1,1.8730208E-2],"categories":[],"categories_nodes":[],"categories_segments":[],"categories_sizes":[],"default_left":[0,0,0,0,0,0,0,0,0,0,0,0,0,0,0,0,0,0,0,0,0],"id":32,"left_children":[1,3,-1,5,-1,7,9,-1,-1,11,13,-1,15,17,19,-1,-1,-1,-1,-1,-1],"loss_changes":[1.9336203E-1,2.356256E-1,0E0,2.4837324E-1,0E0,4.6218914E-1,4.0038514E-1,0E0,0E0,4.6802673E-1,4.9754706E-1,0E0,3.8098252E-1,3.308624E-2,5.0261265E-1,0E0,0E0,0E0,0E0,0E0,0E0],"parents":[2147483647,0,0,1,1,3,3,5,5,6,6,9,9,10,10,12,12,13,13,14,14],"right_children":[2,4,-1,6,-1,8,10,-1,-1,12,14,-1,16,18,20,-1,-1,-1,-1,-1,-1],"split_conditions":[2.67E0,2.3E1,8.8653535E-2,3.9E-1,-8.56138E-2,1.51E0,4.8E-1,-3.467619E-2,1.7030928E-1,1.3E1,5E-1,-1.5831734E-1,1.62E0,9.9E-1,5.2E-1,5.247141E-2,-8.299743E-2,1.5421095E-1,3.7582323E-2,-1.0015361E-1,1.8730208E-2],"split_indices":[0,2,0,10,0,0,10,0,0,2,10,0,0,1,10,0,0,0,0,0,0],"split_type":[0,0,0,0,0,0,0,0,0,0,0,0,0,0,0,0,0,0,0,0,0],"sum_hessian":[3.495104E1,3.3820538E1,1.1305016E0,3.1872578E1,1.9479587E0,2.4407425E0,2.9431835E1,1.358644E0,1.0820986E0,7.5192842E0,2.191255E1,1.9313827E0,5.5879016E0,2.291837E0,1.9620714E1,3.2301242E0,2.3577774E0,1.0890747E0,1.2027621E0,2.9072754E0,1.6713438E1],"tree_param":{"num_deleted":"0","num_feature":"11","num_nodes":"21","size_leaf_vector":"1"}},{"base_weights":[3.9557475E-3,-7.201153E-2,7.452961E-2,1.0836369E-2,-1.5546465E-1,1.1421838E-1,1.4037166E-2,1.1389065E-1,-3.4993705E-1,-5.529356E-2,1.2017241E-1,4.454388E-1,-1.2731845E-2,8.186713E-3,-1.5675487E-1,-3.4431854E-1,3.106979E-2,1.6521001E-1,3.0675808E-2,-1.6536874E-1,1.1297658E-1,-1.582464E-1,-7.4933986E-3,1.448547E-1,-1.2760337E-1,-6.643638E-2,8.7345354E-2,-6.9813125E-2,7.2240554E-2],"categories":[],"categories_nodes":[],"categories_segments":[],"categories_sizes":[],"default_left":[0,0,0,0,0,0,0,0,0,0,0,0,0,0,0,0,0,0,0,0,0,0,0,0,0,0,0,0,0],"id":33,"left_children":[1,3,5,7,-1,-1,9,11,13,15,-1,17,19,-1,-1,21,23,-1,-1,-1,25,-1,-1,27,-1,-1,-1,-1,-1],"loss_changes":[1.958813E-1,6.5705633E-1,3.449728E-1,6.28853E-1,0E0,0E0,4.7320527E-1,5.5465204E-1,2.5939056E-1,3.888613E-1,0E0,7.5244606E-2,7.6865894E-1,0E0,0E0,1.9554377E-1,7.150254E-1,0E0,0E0,0E0,6.18039E-1,0E0,0E0,4.4789818E-1,0E0,0E0,0E0,0E0,0E0],"parents":[2147483647,0,0,1,1,2,2,3,3,6,6,7,7,8,8,9,9,11,11,12,12,15,15,16,16,20,20,23,23],"right_children":[2,4,6,8,-1,-1,10,12,14,16,-1,18,20,-1,-1,22,24,-1,-1,-1,26,-1,-1,28,-1,-1,-1,-1,-1],"split_conditions":[1.48E0,1.41E0,1.56E0,6E-1,-1.5546465E-1,1.1421838E-1,6.2E-1,3E0,8.5E-1,1.72E0,1.2017241E-1,1.1E1,8E0,8.186713E-3,-1.5675487E-1,5E0,5.8E-1,1.6521001E-1,3.0675808E-2,-1.6536874E-1,1.1E1,-1.582464E-1,-7.4933986E-3,4.4E-1,-1.2760337E-1,-6.643638E-2,8.7345354E-2,-6.9813125E-2,7.2240554E-2],"split_indices":[0,0,0,10,0,0,10,5,1,0,0,3,2,0,0,4,10,0,0,0,3,0,0,10,0,0,0,0,0],"split_type":[0,0,0,0,0,0,0,0,0,0,0,0,0,0,0,0,0,0,0,0,0,0,0,0,0,0,0,0,0],"sum_hessian":[3.453507E1,1.6622194E1,1.7912872E1,1.4842131E1,1.7800643E0,2.0817487E0,1.5831124E1,1.2076745E1,2.7653852E0,1.415007E1,1.6810545E0,2.641748E0,9.434998E0,1.132288E0,1.6330973E0,2.568253E0,1.1581817E1,1.5589285E0,1.0828195E0,1.1450337E0,8.289964E0,1.217886E0,1.3503672E0,9.817037E0,1.7647802E0,2.7970438E0,5.49292E0,1.7003853E0,8.116652E0],"tree_param":{"num_deleted":"0","num_feature":"11","num_nodes":"29","size_leaf_vector":"1"}},{"base_weights":[-6.4996355E-3,1.8949828E-1,-3.579103E-2,-7.875748E-3,1.157958E-1,-6.263169E-2,7.678997E-2,7.7250615E-2,-8.802909E-2,-3.4839887E-2,-9.620834E-2,-6.917321E-2,9.4996504E-2,-2.3560124E-2,-3.0537757E-1,-2.0606037E-2,8.9126185E-2,-1.2971628E-1,-2.4725614E-2],"categories":[],"categories_nodes":[],"categories_segments":[],"categories_sizes":[],"default_left":[0,0,0,0,0,0,0,0,0,0,0,0,0,0,0,0,0,0,0],"id":34,"left_children":[1,3,5,7,-1,9,-1,-1,-1,11,-1,13,-1,15,17,-1,-1,-1,-1],"loss_changes":[2.0602179E-1,1.8418917E-1,2.5905254E-1,3.2640946E-1,0E0,1.9841027E-1,0E0,0E0,0E0,3.5381097E-1,0E0,2.71598E-1,0E0,3.4990868E-1,8.0596775E-2,0E0,0E0,0E0,0E0],"parents":[2147483647,0,0,1,1,2,2,3,3,5,5,9,9,11,11,13,13,14,14],"right_children":[2,4,6,8,-1,10,-1,-1,-1,12,-1,14,-1,16,18,-1,-1,-1,-1],"split_conditions":[5.2E-1,8E0,2.42E0,5E0,1.157958E-1,1.66E0,7.678997E-2,7.7250615E-2,-8.802909E-2,1.55E0,-9.620834E-2,1.3E0,9.4996504E-2,1.23E0,5E0,-2.0606037E-2,8.9126185E-2,-1.2971628E-1,-2.4725614E-2],"split_indices":[1,3,0,5,0,1,0,0,0,1,0,1,0,1,4,0,0,0,0],"split_type":[0,0,0,0,0,0,0,0,0,0,0,0,0,0,0,0,0,0,0],"sum_hessian":[3.3704346E1,3.6710145E0,3.003333E1,2.3102553E0,1.3607593E0,2.8222307E1,1.8110223E0,1.2483499E0,1.0619054E0,2.650309E1,1.7192172E0,2.4876415E1,1.6266756E0,2.1771832E1,3.1045828E0,1.9774616E1,1.9972155E0,1.3794526E0,1.7251301E0],"tree_param":{"num_deleted":"0","num_feature":"11","num_nodes":"19","size_leaf_vector":"1"}},{"base_weights":[-1.8558897E-3,-7.891836E-2,1.52230775E-2,-6.287985E-2,8.768891E-2,1.7923405E-2,-1.5002891E-1,2.3680605E-2,3.523128E-1,-8.36461E-2,2.5785562E-1,1.5693961E-1,-1.4426787E-1,-2.0501413E-3,1.5350398E-1,-3.8896418E-1,3.52553E-2,1.772075E-1,-5.3997718E-2,3.5698256E-1,-5.9923306E-2,-3.025216E-1,7.4276015E-2,-1.4322138E-1,-3.1479213E-2,-5.8118343E-2,6.948535E-2,-8.962226E-2,7.192144E-2,1.4645989E-1,-1.845663E-2,1.3486136E-1,-8.8333905E-2,1.9807618E-2,-1.4805578E-1],"categories":[],"categories_nodes":[],"categories_segments":[],"categories_sizes":[],"default_left":[0,0,0,0,0,0,0,0,0,0,0,0,0,0,0,0,0,0,0,0,0,0,0,0,0,0,0,0,0,0,0,0,0,0,0],"id":35,"left_children":[1,-1,3,5,7,9,-1,11,13,15,17,19,21,-1,-1,23,25,-1,27,29,31,33,-1,-1,-1,-1,-1,-1,-1,-1,-1,-1,-1,-1,-1],"loss_changes":[1.5694478E-1,0E0,1.9299005E-1,5.9274685E-1,2.8976437E-1,3.8497746E-1,0E0,3.6380962E-1,1.9557464E-1,4.2146987E-1,5.176763E-1,4.1090548E-1,5.254319E-1,0E0,0E0,3.1075388E-2,4.4958207E-1,0E0,3.1119072E-1,2.9440743E-1,7.494218E-1,4.2855304E-1,0E0,0E0,0E0,0E0,0E0,0E0,0E0,0E0,0E0,0E0,0E0,0E0,0E0],"parents":[2147483647,0,0,2,2,3,3,4,4,5,5,7,7,8,8,9,9,10,10,11,11,12,12,15,15,16,16,18,18,19,19,20,20,21,21],"right_children":[2,-1,4,6,8,10,-1,12,14,16,18,20,22,-1,-1,24,26,-1,28,30,32,34,-1,-1,-1,-1,-1,-1,-1,-1,-1,-1,-1,-1,-1],"split_conditions":[4.4E-1,-7.891836E-2,5.2E-1,5.1E-1,7E0,4.8E-1,-1.5002891E-1,6E0,1.5E1,1.3E1,1.4E1,5.7E-1,6.2E-1,-2.0501413E-3,1.5350398E-1,1.26E0,8.6E-1,1.772075E-1,1.9E1,1.6E1,1.01E0,5.4E-1,7.4276015E-2,-1.4322138E-1,-3.1479213E-2,-5.8118343E-2,6.948535E-2,-8.962226E-2,7.192144E-2,1.4645989E-1,-1.845663E-2,1.3486136E-1,-8.8333905E-2,1.9807618E-2,-1.4805578E-1],"split_indices":[0,0,10,10,5,10,0,4,2,2,2,10,10,0,0,0,1,0,2,3,0,10,0,0,0,0,0,0,0,0,0,0,0,0,0],"split_type":[0,0,0,0,0,0,0,0,0,0,0,0,0,0,0,0,0,0,0,0,0,0,0,0,0,0,0,0,0,0,0,0,0,0,0],"sum_hessian":[3.3282936E1,1.1587285E0,3.2124207E1,1.5524424E1,1.6599783E1,1.3912264E1,1.6121604E0,1.4243898E1,2.3558843E0,1.023212E1,3.680144E0,7.978719E0,6.265179E0,1.0182639E0,1.3376204E0,2.2312756E0,8.000844E0,1.3476678E0,2.3324764E0,3.814215E0,4.1645045E0,4.6252203E0,1.6399589E0,1.1823267E0,1.0489489E0,3.6998162E0,4.301028E0,1.2630517E0,1.0694245E0,2.7769902E0,1.0372248E0,1.023755E0,3.1407495E0,1.8021412E0,2.8230793E0],"tree_param":{"num_deleted":"0","num_feature":"11","num_nodes":"35","size_leaf_vector":"1"}},{"base_weights":[-6.850943E-5,7.907068E-2,-8.632739E-2,1.652208E-2,1.1392451E-1,-2.3080857E-1,8.200614E-2,-4.25365E-2,2.3729183E-1,-1.8579398E-1,-5.857368E-2,-1.418588E-1,3.2695284E-1,2.5110325E-1,-1.2645866E-1,-3.7548244E-2,1.3174269E-1,7.908776E-2,-9.333697E-2,2.7826157E-1,-1.8821013E-1,1.6433516E-1,-2.454394E-2,1.05490826E-1,1.2635409E-2,3.1920083E-2,-3.5754323E-1,-2.0406093E-1,1.2227568E-1,3.2551933E-4,1.3249798E-1,-6.8501815E-2,6.253347E-2,7.6545654E-3,-1.7754449E-1,5.2812096E-2,-1.3252048E-1],"categories":[],"categories_nodes":[],"categories_segments":[],"categories_sizes":[],"default_left":[0,0,0,0,0,0,0,0,0,0,0,0,0,0,0,0,0,0,0,0,0,0,0,0,0,0,0,0,0,0,0,0,0,0,0,0,0],"id":36,"left_children":[1,3,5,7,-1,9,11,13,15,-1,17,19,21,23,25,-1,-1,27,-1,29,-1,-1,-1,-1,-1,31,33,35,-1,-1,-1,-1,-1,-1,-1,-1,-1],"loss_changes":[2.3663753E-1,3.3373538E-1,4.2231423E-1,2.188527E-1,0E0,5.7849467E-1,5.0691044E-1,3.6393908E-1,3.1331122E-1,0E0,2.8430796E-1,1.2118653E0,4.3414167E-1,5.5177376E-2,4.1944554E-1,0E0,0E0,6.070212E-1,0E0,1.5437096E-1,0E0,0E0,0E0,0E0,0E0,3.9368227E-1,4.2931265E-1,4.112209E-1,0E0,0E0,0E0,0E0,0E0,0E0,0E0,0E0,0E0],"parents":[2147483647,0,0,1,1,2,2,3,3,5,5,6,6,7,7,8,8,10,10,11,11,12,12,13,13,14,14,17,17,19,19,25,25,26,26,27,27],"right_children":[2,4,6,8,-1,10,12,14,16,-1,18,20,22,24,26,-1,-1,28,-1,30,-1,-1,-1,-1,-1,32,34,36,-1,-1,-1,-1,-1,-1,-1,-1,-1],"split_conditions":[1.01E0,9.5E-1,1.6E1,5.9E-1,1.1392451E-1,4.8E-1,5.3E-1,4.2E-1,1.2E1,-1.8579398E-1,1.3E1,4.9E-1,5.8E-1,1.67E0,5.3E-1,-3.7548244E-2,1.3174269E-1,1.1E1,-9.333697E-2,4.5E-1,-1.8821013E-1,1.6433516E-1,-2.454394E-2,1.05490826E-1,1.2635409E-2,5E0,6E0,7E0,1.2227568E-1,3.2551933E-4,1.3249798E-1,-6.8501815E-2,6.253347E-2,7.6545654E-3,-1.7754449E-1,5.2812096E-2,-1.3252048E-1],"split_indices":[1,1,2,10,0,10,10,1,2,0,2,10,10,0,10,0,0,2,0,10,0,0,0,0,0,4,4,2,0,0,0,0,0,0,0,0,0],"split_type":[0,0,0,0,0,0,0,0,0,0,0,0,0,0,0,0,0,0,0,0,0,0,0,0,0,0,0,0,0,0,0,0,0,0,0,0,0],"sum_hessian":[3.2664833E1,1.7078918E1,1.5585916E1,1.5011165E1,2.0677545E0,8.187457E0,7.398458E0,1.2479952E1,2.5312119E0,1.7175307E0,6.469926E0,4.0854697E0,3.3129885E0,2.3311763E0,1.0148776E1,1.0413126E0,1.4898994E0,4.6319523E0,1.8379737E0,2.4190667E0,1.666403E0,1.9301537E0,1.3828347E0,1.1131194E0,1.2180568E0,6.5330677E0,3.6157086E0,2.691135E0,1.9408175E0,1.2705104E0,1.1485564E0,2.5216887E0,4.011379E0,1.7102916E0,1.9054168E0,1.1351159E0,1.5560191E0],"tree_param":{"num_deleted":"0","num_feature":"11","num_nodes":"37","size_leaf_vector":"1"}},{"base_weights":[-6.979844E-4,6.2358797E-2,-8.3258845E-2,1.8257302E-1,-6.437267E-2,-3.3030933E-1,3.5059776E-2,-5.884188E-2,5.5355626E-1,8.851628E-2,-2.8344867E-1,-5.402215E-1,5.486736E-2,1.0829549E-1,-6.448668E-2,-2.5068527E-1,9.533363E-2,1.9852328E-1,4.7860246E-2,1.3618046E-1,-8.884521E-2,-1.3476552E-1,-4.969719E-3,-4.758452E-2,-2.0707569E-1,-1.04999505E-1,3.844743E-2,3.5672374E-2,-1.4264716E-1,-7.4022196E-2,1.02529295E-1,-1.1811187E-1,9.680505E-2,-8.322376E-2,1.620568E-1,4.5561228E-2,-9.1129154E-2,-5.7131022E-2,1.1979985E-1,9.384127E-2,-7.6819174E-2],"categories":[],"categories_nodes":[],"categories_segments":[],"categories_sizes":[],"default_left":[0,0,0,0,0,0,0,0,0,0,0,0,0,0,0,0,0,0,0,0,0,0,0,0,0,0,0,0,0,0,0,0,0,0,0,0,0,0,0,0,0],"id":37,"left_children":[1,3,5,7,9,11,13,15,17,19,21,23,-1,-1,25,27,29,-1,-1,-1,31,-1,-1,-1,-1,-1,33,-1,-1,35,-1,-1,37,-1,39,-1,-1,-1,-1,-1,-1],"loss_changes":[1.747593E-1,3.0180696E-1,4.3637887E-1,9.309835E-1,3.6028334E-1,6.161179E-1,3.7142715E-1,2.3037218E-1,6.7097664E-2,4.7172162E-1,1.8506682E-1,1.00118995E-1,0E0,0E0,2.799656E-1,3.3786422E-1,2.1706066E-1,0E0,0E0,0E0,3.3906758E-1,0E0,0E0,0E0,0E0,0E0,3.4037203E-1,0E0,0E0,2.3012105E-1,0E0,0E0,4.329866E-1,0E0,4.6265703E-1,0E0,0E0,0E0,0E0,0E0,0E0],"parents":[2147483647,0,0,1,1,2,2,3,3,4,4,5,5,6,6,7,7,8,8,9,9,10,10,11,11,14,14,15,15,16,16,20,20,26,26,29,29,32,32,34,34],"right_children":[2,4,6,8,10,12,14,16,18,20,22,24,-1,-1,26,28,30,-1,-1,-1,32,-1,-1,-1,-1,-1,34,-1,-1,36,-1,-1,38,-1,40,-1,-1,-1,-1,-1,-1],"split_conditions":[1.07E0,1.6E1,1.1E1,1.48E0,7E0,1.86E0,1.2E1,4E0,1.2E1,6.3E-1,9E0,3E0,5.486736E-2,1.0829549E-1,1.1E1,9E0,5.6E-1,1.9852328E-1,4.7860246E-2,1.3618046E-1,4.4E-1,-1.3476552E-1,-4.969719E-3,-4.758452E-2,-2.0707569E-1,-1.04999505E-1,4.5E-1,3.5672374E-2,-1.4264716E-1,7.6E-1,1.02529295E-1,-1.1811187E-1,6E0,-8.322376E-2,5.8E-1,4.5561228E-2,-9.1129154E-2,-5.7131022E-2,1.1979985E-1,9.384127E-2,-7.6819174E-2],"split_indices":[1,2,3,0,4,0,3,4,3,1,3,5,0,0,2,3,10,0,0,0,10,0,0,0,0,0,10,0,0,1,0,0,5,0,10,0,0,0,0,0,0],"split_type":[0,0,0,0,0,0,0,0,0,0,0,0,0,0,0,0,0,0,0,0,0,0,0,0,0,0,0,0,0,0,0,0,0,0,0,0,0,0,0,0,0],"sum_hessian":[3.157139E1,1.803877E1,1.3532619E1,9.03129E0,9.00748E0,3.802101E0,9.730518E0,5.9807477E0,3.0505428E0,5.656131E0,3.351349E0,2.6610224E0,1.1410784E0,1.6621559E0,8.068362E0,2.3859248E0,3.594823E0,1.8602955E0,1.1902472E0,1.3386755E0,4.3174553E0,1.6458527E0,1.7054964E0,1.3315114E0,1.329511E0,1.5019999E0,6.5663624E0,1.0805308E0,1.305394E0,2.545256E0,1.0495669E0,1.2099226E0,3.1075325E0,1.4969436E0,5.069419E0,1.4542841E0,1.0909718E0,1.7840967E0,1.3234358E0,3.9111798E0,1.158239E0],"tree_param":{"num_deleted":"0","num_feature":"11","num_nodes":"41","size_leaf_vector":"1"}},{"base_weights":[-4.4261822E-3,-8.8297546E-2,5.833868E-2,-2.9718688E-1,3.758687E-2,2.786784E-1,-3.1238988E-2,1.6226307E-1,-1.9663289E-1,1.2441562E-1,-1.2299966E-1,4.8388776E-1,6.7116753E-3,-1.7781007E-1,1.2882952E-1,-3.341886E-2,1.0436669E-1,-1.3609174E-1,1.0043238E-1,1.7544328E-1,4.46786E-2,-3.426496E-2,4.0337622E-2,8.376187E-2,-2.8843567E-1,-7.140138E-2,3.285471E-1,2.7982357E-1,-7.5489916E-2,-4.288415E-1,1.1472628E-2,4.5743057E-1,-2.5850533E-2,1.7883486E-1,-3.689078E-2,-1.620609E-1,-3.928278E-2,2.024437E-1,9.881691E-3],"categories":[],"categories_nodes":[],"categories_segments":[],"categories_sizes":[],"default_left":[0,0,0,0,0,0,0,0,0,0,0,0,0,0,0,0,0,0,0,0,0,0,0,0,0,0,0,0,0,0,0,0,0,0,0,0,0,0,0],"id":38,"left_children":[1,3,5,7,9,11,13,15,-1,-1,17,19,21,23,25,-1,-1,-1,27,-1,-1,-1,-1,-1,29,-1,31,33,-1,35,-1,37,-1,-1,-1,-1,-1,-1,-1],"loss_changes":[1.7104675E-1,3.763377E-1,3.7636083E-1,9.84355E-1,6.295452E-1,3.0285746E-1,3.5470942E-1,1.9818723E-1,0E0,0E0,5.97492E-1,1.8105567E-2,6.746093E-2,4.7501564E-1,6.159362E-1,0E0,0E0,0E0,4.0370026E-1,0E0,0E0,0E0,0E0,0E0,3.2709998E-1,0E0,3.158881E-1,5.789951E-1,0E0,8.914918E-2,0E0,3.5653883E-1,0E0,0E0,0E0,0E0,0E0,0E0,0E0],"parents":[2147483647,0,0,1,1,2,2,3,3,4,4,5,5,6,6,7,7,10,10,11,11,12,12,13,13,14,14,18,18,24,24,26,26,27,27,29,29,31,31],"right_children":[2,4,6,8,10,12,14,16,-1,-1,18,20,22,24,26,-1,-1,-1,28,-1,-1,-1,-1,-1,30,-1,32,34,-1,36,-1,38,-1,-1,-1,-1,-1,-1,-1],"split_conditions":[5E0,1.13E0,6E0,7.8E-1,1.4E0,1E0,4E0,1.1E1,-1.9663289E-1,1.2441562E-1,1.64E0,6E0,1.3E1,1.01E0,1.4E0,-3.341886E-2,1.0436669E-1,-1.3609174E-1,1.9E1,1.7544328E-1,4.46786E-2,-3.426496E-2,4.0337622E-2,8.376187E-2,1.09E0,-7.140138E-2,1E0,2.05E0,-7.5489916E-2,1.9E1,1.1472628E-2,1.2E0,-2.5850533E-2,1.7883486E-1,-3.689078E-2,-1.620609E-1,-3.928278E-2,2.024437E-1,9.881691E-3],"split_indices":[4,0,4,0,0,1,5,3,0,0,0,5,3,0,0,0,0,0,2,0,0,0,0,0,1,0,8,0,0,2,0,1,0,0,0,0,0,0,0],"split_type":[0,0,0,0,0,0,0,0,0,0,0,0,0,0,0,0,0,0,0,0,0,0,0,0,0,0,0,0,0,0,0,0,0,0,0,0,0,0,0],"sum_hessian":[3.0514076E1,1.2886849E1,1.7627226E1,4.3341246E0,8.552726E0,4.48476E0,1.3142466E1,2.1385672E0,2.195557E0,2.0816107E0,6.4711146E0,2.1119757E0,2.3727841E0,6.8026223E0,6.3398433E0,1.025949E0,1.1126183E0,2.194026E0,4.2770886E0,1.0497645E0,1.0622112E0,1.2733343E0,1.09945E0,1.0287533E0,5.773869E0,2.1673067E0,4.172537E0,2.9693053E0,1.3077836E0,3.8195107E0,1.9543583E0,3.1046796E0,1.0678571E0,1.3943982E0,1.574907E0,2.188152E0,1.6313585E0,1.6632404E0,1.4414392E0],"tree_param":{"num_deleted":"0","num_feature":"11","num_nodes":"39","size_leaf_vector":"1"}},{"base_weights":[2.5897042E-3,7.965335E-2,-8.290864E-2,1.8477915E-2,1.0657092E-1,-2.2227216E-1,4.3665126E-2,9.1949314E-2,-1.3923967E-1,-3.5162878E-1,3.663434E-2,-1.2320303E-1,3.059633E-1,-1.396755E-1,1.792545E-1,4.2438425E-2,-3.4096256E-1,-1.6095042E-1,-2.9069472E-2,1.284331E-1,-3.6070502E-1,1.3639225E-1,7.4320454E-3,-9.278072E-2,2.8644267E-2,3.4771383E-1,-1.08830996E-1,-1.4379996E-1,-1.6699051E-2,-4.558365E-2,3.367114E-2,9.6466884E-2,-2.7519437E-2,-1.286605E-1,-3.3377875E-2,9.1573885E-3,1.4415656E-1,4.1068286E-2,-1.0712356E-1],"categories":[],"categories_nodes":[],"categories_segments":[],"categories_sizes":[],"default_left":[0,0,0,0,0,0,0,0,0,0,0,0,0,0,0,0,0,0,0,0,0,0,0,0,0,0,0,0,0,0,0,0,0,0,0,0,0,0,0],"id":39,"left_children":[1,3,5,7,-1,9,11,13,15,17,-1,19,21,23,25,-1,27,-1,29,31,33,-1,-1,-1,-1,35,37,-1,-1,-1,-1,-1,-1,-1,-1,-1,-1,-1,-1],"loss_changes":[2.0725212E-1,2.7205437E-1,2.7300328E-1,1.8174228E-1,0E0,3.6673898E-1,4.1664606E-1,2.3834369E-1,3.3310467E-1,3.148601E-1,0E0,4.051787E-1,1.4147499E-1,1.6710109E-1,4.3087488E-1,0E0,1.0045493E-1,0E0,7.046728E-2,1.8481474E-1,9.270936E-3,0E0,0E0,0E0,0E0,2.1064878E-1,2.776297E-1,0E0,0E0,0E0,0E0,0E0,0E0,0E0,0E0,0E0,0E0,0E0,0E0],"parents":[2147483647,0,0,1,1,2,2,3,3,5,5,6,6,7,7,8,8,9,9,11,11,12,12,13,13,14,14,16,16,18,18,19,19,20,20,25,25,26,26],"right_children":[2,4,6,8,-1,10,12,14,16,18,-1,20,22,24,26,-1,28,-1,30,32,34,-1,-1,-1,-1,36,38,-1,-1,-1,-1,-1,-1,-1,-1,-1,-1,-1,-1],"split_conditions":[1.01E0,9.5E-1,5.2E-1,6E0,1.0657092E-1,1.61E0,1.64E0,1.2E1,8E-1,6E0,3.663434E-2,1.2E0,5.8E-1,5E0,1.99E0,4.2438425E-2,1.1E1,-1.6095042E-1,1.6E1,5.5E-1,6E0,1.3639225E-1,7.4320454E-3,-9.278072E-2,2.8644267E-2,3E0,1.1E1,-1.4379996E-1,-1.6699051E-2,-4.558365E-2,3.367114E-2,9.6466884E-2,-2.7519437E-2,-1.286605E-1,-3.3377875E-2,9.1573885E-3,1.4415656E-1,4.1068286E-2,-1.0712356E-1],"split_indices":[1,1,10,5,0,1,0,2,1,4,0,0,10,4,0,0,3,0,2,10,4,0,0,0,0,5,3,0,0,0,0,0,0,0,0,0,0,0,0],"split_type":[0,0,0,0,0,0,0,0,0,0,0,0,0,0,0,0,0,0,0,0,0,0,0,0,0,0,0,0,0,0,0,0,0,0,0,0,0,0,0],"sum_hessian":[2.9452848E1,1.5526475E1,1.39263735E1,1.3579151E1,1.9473244E0,6.268452E0,7.657922E0,9.5482025E0,4.0309486E0,4.5415506E0,1.7269014E0,5.0044794E0,2.6534424E0,2.4495573E0,7.098645E0,1.8104326E0,2.2205162E0,2.4653106E0,2.07624E0,2.652917E0,2.3515625E0,1.3322017E0,1.3212407E0,1.2400655E0,1.2094918E0,4.348726E0,2.749919E0,1.0373107E0,1.1832054E0,1.070273E0,1.005967E0,1.1679189E0,1.4849981E0,1.2819666E0,1.069596E0,1.6464067E0,2.7023194E0,1.607404E0,1.1425151E0],"tree_param":{"num_deleted":"0","num_feature":"11","num_nodes":"39","size_leaf_vector":"1"}},{"base_weights":[-7.9359976E-4,-8.198228E-2,1.8921927E-2,1.7013353E-1,-1.5634732E-2,1.3005987E-1,-1.3145615E-1,-2.8625807E-1,3.138687E-2,1.9630592E-2,-7.599865E-2,-1.4617805E-1,2.1959944E-2,1.270109E-1,-9.633828E-3,9.650832E-2,-1.5630114E-1,7.7262186E-2,-5.7382543E-2,-9.6828856E-2,1.6856616E-2],"categories":[],"categories_nodes":[],"categories_segments":[],"categories_sizes":[],"default_left":[0,0,0,0,0,0,0,0,0,0,0,0,0,0,0,0,0,0,0,0,0],"id":40,"left_children":[1,-1,3,5,7,-1,9,11,13,-1,-1,-1,-1,-1,15,17,19,-1,-1,-1,-1],"loss_changes":[1.6508709E-1,0E0,1.5259989E-1,4.877017E-1,3.1785798E-1,0E0,9.564371E-2,3.0241668E-1,3.51084E-1,0E0,0E0,0E0,0E0,0E0,3.3443812E-1,6.294433E-1,3.362861E-1,0E0,0E0,0E0,0E0],"parents":[2147483647,0,0,2,2,3,3,4,4,6,6,7,7,8,8,14,14,15,15,16,16],"right_children":[2,-1,4,6,8,-1,10,12,14,-1,-1,-1,-1,-1,16,18,20,-1,-1,-1,-1],"split_conditions":[4.4E-1,-8.198228E-2,9.7E-1,4E0,1.16E0,1.3005987E-1,5E-1,5E0,1.2E0,1.9630592E-2,-7.599865E-2,-1.4617805E-1,2.1959944E-2,1.270109E-1,1.07E0,7E0,1.86E0,7.7262186E-2,-5.7382543E-2,-9.6828856E-2,1.6856616E-2],"split_indices":[0,0,0,5,0,0,10,4,0,0,0,0,0,0,1,4,0,0,0,0,0],"split_type":[0,0,0,0,0,0,0,0,0,0,0,0,0,0,0,0,0,0,0,0,0],"sum_hessian":[2.8767918E1,1.073306E0,2.769461E1,4.4219413E0,2.327267E1,2.1268883E0,2.295053E0,2.691942E0,2.0580729E1,1.0545151E0,1.2405378E0,1.4984791E0,1.1934628E0,1.066705E0,1.9514023E1,1.151946E1,7.9945636E0,7.453733E0,4.0657268E0,4.191804E0,3.8027594E0],"tree_param":{"num_deleted":"0","num_feature":"11","num_nodes":"21","size_leaf_vector":"1"}},{"base_weights":[-2.973367E-3,8.330449E-2,-2.382791E-2,8.194634E-2,-8.982289E-2,1.602436E-1,-8.032588E-2,-1.6698092E-1,1.2234614E-1,2.5762004E-1,-1.4621967E-1,-2.272378E-1,5.8712635E-2,2.8342283E-1,-3.8301162E-2,-3.6486927E-2,3.6117345E-1,-5.3738467E-2,-1.2152427E-2,-2.8015685E-1,2.944311E-2,-3.664629E-2,1.473728E-1,-1.1919699E-2,1.3425098E-1,-3.4301903E-2,-1.3285281E-1],"categories":[],"categories_nodes":[],"categories_segments":[],"categories_sizes":[],"default_left":[0,0,0,0,0,0,0,0,0,0,0,0,0,0,0,0,0,0,0,0,0,0,0,0,0,0,0],"id":41,"left_children":[1,-1,3,5,7,9,-1,11,13,15,17,19,-1,21,-1,-1,23,-1,-1,25,-1,-1,-1,-1,-1,-1,-1],"loss_changes":[1.7811134E-1,0E0,2.0417774E-1,3.5382888E-1,3.124693E-1,3.3322287E-1,0E0,3.3961365E-1,2.5101697E-1,3.5330504E-1,3.2707676E-3,2.3487121E-1,0E0,3.5963938E-1,0E0,0E0,2.4067193E-1,0E0,0E0,2.3580378E-1,0E0,0E0,0E0,0E0,0E0,0E0,0E0],"parents":[2147483647,0,0,2,2,3,3,4,4,5,5,7,7,8,8,9,9,10,10,11,11,13,13,16,16,19,19],"right_children":[2,-1,4,6,8,10,-1,12,14,16,18,20,-1,22,-1,-1,24,-1,-1,26,-1,-1,-1,-1,-1,-1,-1],"split_conditions":[4E0,8.330449E-2,1.4E1,1.45E0,5.6E-1,6E-1,-8.032588E-2,9E0,2.05E0,6.3E-1,1.4E1,1.58E0,5.8712635E-2,1.39E0,-3.8301162E-2,-3.6486927E-2,4.4E-1,-5.3738467E-2,-1.2152427E-2,1.01E0,2.944311E-2,-3.664629E-2,1.473728E-1,-1.1919699E-2,1.3425098E-1,-3.4301903E-2,-1.3285281E-1],"split_indices":[3,0,2,1,10,10,0,4,0,1,3,1,0,0,0,0,10,0,0,1,0,0,0,0,0,0,0],"split_type":[0,0,0,0,0,0,0,0,0,0,0,0,0,0,0,0,0,0,0,0,0,0,0,0,0,0,0],"sum_hessian":[2.8300661E1,1.1056708E0,2.719499E1,1.0355646E1,1.6839344E1,8.9038515E0,1.4517947E0,1.2504794E1,4.33455E0,6.8778443E0,2.026007E0,1.1043503E1,1.461291E0,2.554903E0,1.779647E0,1.4377786E0,5.440066E0,1.0154064E0,1.0106006E0,9.618216E0,1.4252874E0,1.0052625E0,1.5496405E0,1.0595233E0,4.3805423E0,5.6065636E0,4.011652E0],"tree_param":{"num_deleted":"0","num_feature":"11","num_nodes":"27","size_leaf_vector":"1"}},{"base_weights":[-1.3933532E-3,-4.2444583E-2,1.6203417E-1,6.916312E-2,-7.773845E-2,-9.169359E-2,3.6275584E-1,-3.597547E-2,-1.2669243E-1,6.9371805E-2,-1.0017864E-1,9.688366E-3,1.7240408E-1,-1.5426639E-1,4.6229206E-2,-2.5466397E-1,3.879861E-2,-9.748369E-2,1.0673632E-1,2.2087216E-2,-1.08043216E-1,-8.819792E-2,1.2186936E-1,-3.8377445E-2,5.766275E-2],"categories":[],"categories_nodes":[],"categories_segments":[],"categories_sizes":[],"default_left":[0,0,0,0,0,0,0,0,0,0,0,0,0,0,0,0,0,0,0,0,0,0,0,0,0],"id":42,"left_children":[1,3,5,-1,7,9,11,13,-1,-1,-1,-1,-1,15,17,19,21,-1,23,-1,-1,-1,-1,-1,-1],"loss_changes":[2.0024404E-1,2.4750453E-1,3.3852714E-1,0E0,2.9920903E-1,3.4675616E-1,2.2993946E-1,2.0724851E-1,0E0,0E0,0E0,0E0,0E0,1.7790133E-1,3.2465255E-1,2.2856843E-1,5.881653E-1,0E0,2.623506E-1,0E0,0E0,0E0,0E0,0E0,0E0],"parents":[2147483647,0,0,1,1,2,2,4,4,5,5,6,6,7,7,13,13,14,14,15,15,16,16,18,18],"right_children":[2,4,6,-1,8,10,12,14,-1,-1,-1,-1,-1,16,18,20,22,-1,24,-1,-1,-1,-1,-1,-1],"split_conditions":[2.18E0,5.2E-1,4E0,6.916312E-2,2.05E0,1E1,5.1E-1,1.1E1,-1.2669243E-1,6.9371805E-2,-1.0017864E-1,9.688366E-3,1.7240408E-1,1.53E0,6.7E-1,1.03E0,9E0,-9.748369E-2,1.1E1,2.2087216E-2,-1.08043216E-1,-8.819792E-2,1.2186936E-1,-3.8377445E-2,5.766275E-2],"split_indices":[0,1,5,0,0,3,10,3,0,0,0,0,0,0,0,0,3,0,2,0,0,0,0,0,0],"split_type":[0,0,0,0,0,0,0,0,0,0,0,0,0,0,0,0,0,0,0,0,0,0,0,0,0],"sum_hessian":[2.782239E1,2.2828423E1,4.993968E0,1.9801778E0,2.0848244E1,2.4456532E0,2.548315E0,1.9579546E1,1.2686988E0,1.0676806E0,1.3779725E0,1.4459622E0,1.1023529E0,7.6683407E0,1.1911205E1,4.834992E0,2.8333488E0,1.0569683E0,1.0854237E1,1.2491727E0,3.5858192E0,1.5916389E0,1.2417097E0,2.765375E0,8.088861E0],"tree_param":{"num_deleted":"0","num_feature":"11","num_nodes":"25","size_leaf_vector":"1"}},{"base_weights":[-2.0395266E-3,-3.8408443E-2,1.456962E-1,5.900079E-2,-6.8842635E-2,-5.9244126E-2,2.654652E-1,-1.781775E-1,1.5437715E-2,-1.9602321E-2,1.58486E-1,6.863263E-2,-2.6326892E-1,2.2203481E-1,-9.702382E-2,-3.8323656E-1,-3.658853E-2,-5.977601E-2,4.8139834E-1,7.058036E-2,-3.8327914E-1,-1.1308308E-2,-1.4499457E-1,9.717253E-2,-8.62581E-2,1.8302992E-1,3.63352E-2,-7.02883E-2,8.495148E-2,-1.444813E-1,-3.5137106E-2],"categories":[],"categories_nodes":[],"categories_segments":[],"categories_sizes":[],"default_left":[0,0,0,0,0,0,0,0,0,0,0,0,0,0,0,0,0,0,0,0,0,0,0,0,0,0,0,0,0,0,0],"id":43,"left_children":[1,3,5,-1,7,-1,9,11,13,-1,-1,-1,15,17,19,21,23,-1,25,27,29,-1,-1,-1,-1,-1,-1,-1,-1,-1,-1],"loss_changes":[1.5752791E-1,1.8154173E-1,2.905932E-1,0E0,2.011583E-1,0E0,4.4506744E-1,3.8754687E-1,3.2542583E-1,0E0,0E0,0E0,2.1121895E-1,6.3288033E-1,4.667621E-1,1.6543144E-1,4.5244986E-1,0E0,8.071709E-2,4.9573088E-1,3.6233425E-2,0E0,0E0,0E0,0E0,0E0,0E0,0E0,0E0,0E0,0E0],"parents":[2147483647,0,0,1,1,2,2,4,4,6,6,7,7,8,8,12,12,13,13,14,14,15,15,16,16,18,18,19,19,20,20],"right_children":[2,4,6,-1,8,-1,10,12,14,-1,-1,-1,16,18,20,22,24,-1,26,28,30,-1,-1,-1,-1,-1,-1,-1,-1,-1,-1],"split_conditions":[2.18E0,3.9E-1,4.5E-1,5.900079E-2,5E0,-5.9244126E-2,4E0,2E0,1.17E0,-1.9602321E-2,1.58486E-1,6.863263E-2,6E0,8.3E-1,1.2E0,3E0,1.3E1,-5.977601E-2,6E0,9E0,5.4E-1,-1.1308308E-2,-1.4499457E-1,9.717253E-2,-8.62581E-2,1.8302992E-1,3.63352E-2,-7.02883E-2,8.495148E-2,-1.444813E-1,-3.5137106E-2],"split_indices":[0,10,10,0,4,0,5,5,0,0,0,0,5,0,1,5,2,0,4,3,10,0,0,0,0,0,0,0,0,0,0],"split_type":[0,0,0,0,0,0,0,0,0,0,0,0,0,0,0,0,0,0,0,0,0,0,0,0,0,0,0,0,0,0,0],"sum_hessian":[2.7276993E1,2.2482395E1,4.794596E0,1.9509424E0,2.0531454E1,1.0725507E0,3.722046E0,8.452336E0,1.2079117E1,1.9805574E0,1.7414883E0,1.1696855E0,7.282651E0,3.914211E0,8.1649065E0,4.310649E0,2.972002E0,1.5798298E0,2.3343813E0,5.6249185E0,2.5399876E0,1.2772677E0,3.0333815E0,1.1003937E0,1.8716083E0,1.2090714E0,1.12531E0,2.268952E0,3.3559668E0,1.2636685E0,1.276319E0],"tree_param":{"num_deleted":"0","num_feature":"11","num_nodes":"31","size_leaf_vector":"1"}},{"base_weights":[7.9041155E-4,7.185327E-2,-1.7538585E-2,7.595731E-2,-7.658819E-2,1.3910225E-1,-6.417822E-2,-1.8516691E-1,6.359775E-2,2.1488859E-1,-3.0150523E-2,-1.5300703E-1,-7.8337215E-2,1.2557152E-1,-4.566769E-2,-2.6137328E-2,2.976342E-1,5.611886E-2,-1.3072224E-1,-1.039422E-2,2.4703996E-1,1.2596859E-1,-2.4666004E-3,-4.1967005E-2,1.0356236E-1,-7.497987E-2,6.9824204E-2,1.0622837E-1,-3.292243E-4],"categories":[],"categories_nodes":[],"categories_segments":[],"categories_sizes":[],"default_left":[0,0,0,0,0,0,0,0,0,0,0,0,0,0,0,0,0,0,0,0,0,0,0,0,0,0,0,0,0],"id":44,"left_children":[1,-1,3,5,7,9,-1,11,13,15,-1,-1,17,19,-1,-1,21,23,-1,25,27,-1,-1,-1,-1,-1,-1,-1,-1],"loss_changes":[1.2480595E-1,0E0,1.5228711E-1,2.2693142E-1,2.6685837E-1,1.9321468E-1,0E0,2.9665902E-1,1.269059E-1,2.1332425E-1,0E0,0E0,4.3198863E-1,1.1502216E-1,0E0,0E0,2.3202264E-1,4.4767138E-1,0E0,3.011794E-1,9.6992135E-2,0E0,0E0,0E0,0E0,0E0,0E0,0E0,0E0],"parents":[2147483647,0,0,2,2,3,3,4,4,5,5,7,7,8,8,9,9,12,12,13,13,16,16,17,17,19,19,20,20],"right_children":[2,-1,4,6,8,10,-1,12,14,16,-1,-1,18,20,-1,-1,22,24,-1,26,28,-1,-1,-1,-1,-1,-1,-1,-1],"split_conditions":[4E0,7.185327E-2,1.4E1,1.45E0,5.2E-1,6E-1,-6.417822E-2,7E0,2.2E1,6.3E-1,-3.0150523E-2,-1.5300703E-1,5E-1,1.81E0,-4.566769E-2,-2.6137328E-2,6E0,1.9E1,-1.3072224E-1,1.2E1,5.8E-1,1.2596859E-1,-2.4666004E-3,-4.1967005E-2,1.0356236E-1,-7.497987E-2,6.9824204E-2,1.0622837E-1,-3.292243E-4],"split_indices":[3,0,2,1,10,10,0,3,2,1,0,0,10,0,0,0,4,2,0,3,10,0,0,0,0,0,0,0,0],"split_type":[0,0,0,0,0,0,0,0,0,0,0,0,0,0,0,0,0,0,0,0,0,0,0,0,0,0,0,0,0],"sum_hessian":[2.6563726E1,1.0336707E0,2.5530056E1,9.77172E0,1.5758335E1,8.451003E0,1.3207166E0,8.699451E0,7.0588837E0,6.4986444E0,1.9523593E0,1.2188624E0,7.4805894E0,5.8090014E0,1.2498825E0,1.3862082E0,5.112436E0,6.0482173E0,1.4323721E0,3.1724012E0,2.6366003E0,3.386061E0,1.726375E0,3.9119363E0,2.1362808E0,1.5839705E0,1.5884306E0,1.5436213E0,1.0929788E0],"tree_param":{"num_deleted":"0","num_feature":"11","num_nodes":"29","size_leaf_vector":"1"}},{"base_weights":[-2.7605132E-3,-3.498462E-2,1.2579513E-1,6.7668155E-2,-6.940296E-2,-7.600287E-2,2.9551452E-1,-3.5100415E-2,-1.05432294E-1,6.414499E-2,-8.6859E-2,1.1433596E-1,1.792022E-2,-8.685494E-2,1.3544483E-1,-1.4403892E-1,9.1493934E-2,-6.7807645E-2,3.2808575E-1,-5.4345652E-3,-8.335333E-2,1.3495362E-1,5.5369753E-3],"categories":[],"categories_nodes":[],"categories_segments":[],"categories_sizes":[],"default_left":[0,0,0,0,0,0,0,0,0,0,0,0,0,0,0,0,0,0,0,0,0,0,0],"id":45,"left_children":[1,3,5,-1,7,9,11,13,-1,-1,-1,-1,-1,15,17,19,-1,-1,21,-1,-1,-1,-1],"loss_changes":[1.1664479E-1,2.1694876E-1,2.1590188E-1,0E0,1.8688828E-1,2.7080512E-1,4.3285817E-2,1.8361971E-1,0E0,0E0,0E0,0E0,0E0,3.9227957E-1,4.170129E-1,2.3500207E-1,0E0,0E0,1.2816685E-1,0E0,0E0,0E0,0E0],"parents":[2147483647,0,0,1,1,2,2,4,4,5,5,6,6,7,7,13,13,14,14,15,15,18,18],"right_children":[2,4,6,-1,8,10,12,14,-1,-1,-1,-1,-1,16,18,20,-1,-1,22,-1,-1,-1,-1],"split_conditions":[2.17E0,5.2E-1,4E0,6.7668155E-2,2.05E0,1E1,7E0,1.7E0,-1.05432294E-1,6.414499E-2,-8.6859E-2,1.1433596E-1,1.792022E-2,1.8E1,9E0,1.2E1,9.1493934E-2,-6.7807645E-2,1.4E1,-5.4345652E-3,-8.335333E-2,1.3495362E-1,5.5369753E-3],"split_indices":[0,1,5,0,0,3,4,0,0,0,0,0,0,3,3,3,0,0,3,0,0,0,0],"split_type":[0,0,0,0,0,0,0,0,0,0,0,0,0,0,0,0,0,0,0,0,0,0,0],"sum_hessian":[2.6095098E1,2.1447E1,4.648099E0,1.854562E0,1.9592438E1,2.375633E0,2.2724657E0,1.8470444E1,1.1219937E0,1.0072037E0,1.3684294E0,1.2149373E0,1.0575284E0,1.4546739E1,3.923705E0,1.3246025E1,1.3007135E0,1.3038566E0,2.6198485E0,7.4089155E0,5.83711E0,1.5553612E0,1.0644873E0],"tree_param":{"num_deleted":"0","num_feature":"11","num_nodes":"23","size_leaf_vector":"1"}},{"base_weights":[3.6801365E-3,-6.891858E-2,2.1956682E-2,-1.11129165E-1,6.4651445E-2,9.671199E-2,-3.2129562E-1,2.0136474E-2,2.1841389E-1,7.095286E-2,-4.9702298E-2,-2.7319878E-2,-1.1426057E-1,1.503848E-1,-6.8887316E-2,-1.606347E-2,1.352761E-1,-1.3842611E-1,3.1622487E-1,1.8632025E-1,-2.5936472E-1,4.8439678E-2,-1.104055E-1,1.5273225E-1,-4.653107E-2,1.0671049E-1,-2.8406676E-2,1.4080534E-2,-1.1395215E-1],"categories":[],"categories_nodes":[],"categories_segments":[],"categories_sizes":[],"default_left":[0,0,0,0,0,0,0,0,0,0,0,0,0,0,0,0,0,0,0,0,0,0,0,0,0,0,0,0,0],"id":46,"left_children":[1,-1,3,5,7,9,11,13,15,-1,-1,-1,-1,17,19,-1,-1,21,23,25,27,-1,-1,-1,-1,-1,-1,-1,-1],"loss_changes":[1.1889799E-1,0E0,1.5300898E-1,3.194229E-1,1.3292584E-1,1.8912102E-1,1.3506532E-2,2.0353594E-1,3.0253637E-1,0E0,0E0,0E0,0E0,3.827886E-1,5.627268E-1,0E0,0E0,2.8507763E-1,5.1540315E-1,2.766422E-1,2.5685775E-1,0E0,0E0,0E0,0E0,0E0,0E0,0E0,0E0],"parents":[2147483647,0,0,2,2,3,3,4,4,5,5,6,6,7,7,8,8,13,13,14,14,17,17,18,18,19,19,20,20],"right_children":[2,-1,4,6,8,10,12,14,16,-1,-1,-1,-1,18,20,-1,-1,22,24,26,28,-1,-1,-1,-1,-1,-1,-1,-1],"split_conditions":[4.4E-1,-6.891858E-2,4.5E-1,4.2E-1,2.18E0,1.8E1,1.55E0,9.3E-1,4E0,7.095286E-2,-4.9702298E-2,-2.7319878E-2,-1.1426057E-1,1.2E1,1.3E1,-1.606347E-2,1.352761E-1,4E0,8E0,5.7E-1,3E0,4.8439678E-2,-1.104055E-1,1.5273225E-1,-4.653107E-2,1.0671049E-1,-2.8406676E-2,1.4080534E-2,-1.1395215E-1],"split_indices":[0,0,10,10,0,2,0,1,5,0,0,0,0,2,2,0,0,5,4,10,5,0,0,0,0,0,0,0,0],"split_type":[0,0,0,0,0,0,0,0,0,0,0,0,0,0,0,0,0,0,0,0,0,0,0,0,0,0,0,0,0],"sum_hessian":[2.5689274E1,1.0253246E0,2.466395E1,5.601227E0,1.9062723E1,3.0876098E0,2.5136168E0,1.56600275E1,3.4026952E0,2.0787094E0,1.0089005E0,1.0365092E0,1.4771076E0,6.0780826E0,9.581945E0,1.9230464E0,1.4796487E0,2.277359E0,3.8007233E0,4.104471E0,5.4774737E0,1.1161633E0,1.1611958E0,2.6401398E0,1.1605836E0,2.395036E0,1.7094352E0,1.7185695E0,3.7589042E0],"tree_param":{"num_deleted":"0","num_feature":"11","num_nodes":"29","size_leaf_vector":"1"}},